{
    "metrics": [
        "accuracy"
    ],
    "trainable": true,
    "verbose": true,
    "cost": "mse",
    "layers": {
        "layer1": {
            "bias": [
                [
                    0.04042085585376856
                ]
            ],
            "bias_constraints": null,
            "built": true,
            "input_shape": [
                784
            ],
            "kw_params": [
                "input_shape",
                "activation",
                "trainable",
                "use_bias",
                "weights_constraints",
                "bias_constraints",
                "learning_rate"
            ],
            "learning_rate": 0.01,
            "name": "Dense Layer",
            "nodes": 1,
            "non_trainable_params": 0,
            "output_shape": [
                1
            ],
            "pos_params": [
                "nodes"
            ],
            "trainable": true,
            "trainable_params": 785,
            "use_bias": true,
            "weights": [
                [
                    0.012503419705449529
                ],
                [
                    0.18759756027528066
                ],
                [
                    0.016966427019377655
                ],
                [
                    -0.029077090844931975
                ],
                [
                    -0.0966912534474414
                ],
                [
                    -0.08952670339087135
                ],
                [
                    0.13100899509172134
                ],
                [
                    -0.07445401106709325
                ],
                [
                    -0.029549558859114172
                ],
                [
                    0.07802348517440413
                ],
                [
                    -0.05304850816591622
                ],
                [
                    0.006100493637321045
                ],
                [
                    -0.09823291299832337
                ],
                [
                    -0.08754499381199476
                ],
                [
                    -0.17929486771873368
                ],
                [
                    0.061474222929511574
                ],
                [
                    -0.12010559890867722
                ],
                [
                    -0.020085055903863138
                ],
                [
                    -0.05724856213670524
                ],
                [
                    0.09464047925369912
                ],
                [
                    0.12400217718623796
                ],
                [
                    -0.04321863995005393
                ],
                [
                    0.04553973281945355
                ],
                [
                    -0.09985249944232609
                ],
                [
                    -0.09987970342459711
                ],
                [
                    -0.07693965347769813
                ],
                [
                    0.09501942533616485
                ],
                [
                    -0.10420676772672464
                ],
                [
                    0.03392939287477321
                ],
                [
                    -0.06354957239553825
                ],
                [
                    0.07893048065399766
                ],
                [
                    0.026256290035003477
                ],
                [
                    0.010143072958320128
                ],
                [
                    -0.019945878663783945
                ],
                [
                    0.09227299162965104
                ],
                [
                    -0.04391339172416781
                ],
                [
                    -0.014416441099437648
                ],
                [
                    -0.04801565812495824
                ],
                [
                    0.04231956473645131
                ],
                [
                    0.009497651572847805
                ],
                [
                    -0.10961362554843407
                ],
                [
                    0.03275230529098844
                ],
                [
                    -0.1283354602634089
                ],
                [
                    0.019501291240456787
                ],
                [
                    0.09478347956202522
                ],
                [
                    0.08099352054388455
                ],
                [
                    -0.1548362435940156
                ],
                [
                    -0.027693885826362327
                ],
                [
                    -0.16178592527538005
                ],
                [
                    -0.12328222111889227
                ],
                [
                    0.0789204691624217
                ],
                [
                    -0.0017335440369685648
                ],
                [
                    -0.05527468216213366
                ],
                [
                    -0.11281603430650573
                ],
                [
                    -0.030709739338350125
                ],
                [
                    -0.06330615398856113
                ],
                [
                    0.13575419001966246
                ],
                [
                    0.05660193273775756
                ],
                [
                    -0.03203071763293827
                ],
                [
                    0.010368486307477253
                ],
                [
                    -0.15401641066003335
                ],
                [
                    -0.07672258241186806
                ],
                [
                    -0.20580785651327593
                ],
                [
                    0.040429724052275996
                ],
                [
                    -0.09531390235660808
                ],
                [
                    0.018532525862084082
                ],
                [
                    0.03256959188231018
                ],
                [
                    -0.04735672904695396
                ],
                [
                    0.004578430831132539
                ],
                [
                    -0.09527303488940937
                ],
                [
                    0.011928809430061017
                ],
                [
                    -0.028642955023623927
                ],
                [
                    0.03463135178894325
                ],
                [
                    0.1295996431299431
                ],
                [
                    0.07354852434851684
                ],
                [
                    -0.004510907404936113
                ],
                [
                    0.07050369456362149
                ],
                [
                    0.07875129185660455
                ],
                [
                    0.046291837038962044
                ],
                [
                    0.05309750339844489
                ],
                [
                    0.05967204283009462
                ],
                [
                    0.055853705678775546
                ],
                [
                    0.009366152561765768
                ],
                [
                    0.053810882477820565
                ],
                [
                    -0.0811463286974108
                ],
                [
                    0.11819302751234313
                ],
                [
                    -0.06441695421558126
                ],
                [
                    -0.15086660278985123
                ],
                [
                    0.07294784229842899
                ],
                [
                    0.1394499228782629
                ],
                [
                    -0.03936391922773562
                ],
                [
                    0.03396828917089452
                ],
                [
                    -0.015815044249507915
                ],
                [
                    -0.10795818764470085
                ],
                [
                    0.01329061048994387
                ],
                [
                    -0.1870888604991097
                ],
                [
                    -0.07134213240360032
                ],
                [
                    -0.017177444944539853
                ],
                [
                    -0.08611740560783453
                ],
                [
                    0.05408090694986449
                ],
                [
                    0.05954546006492416
                ],
                [
                    0.048703521183633455
                ],
                [
                    -0.090631280374747
                ],
                [
                    0.15872157550316346
                ],
                [
                    0.12443707772299474
                ],
                [
                    0.08674586181404198
                ],
                [
                    -0.03657795110744601
                ],
                [
                    -0.06905921183888765
                ],
                [
                    -0.0680660489086128
                ],
                [
                    0.04031658370151652
                ],
                [
                    0.12297446902658603
                ],
                [
                    0.10006670483937491
                ],
                [
                    -0.12263435501565806
                ],
                [
                    0.11460861501649294
                ],
                [
                    0.010466372934532293
                ],
                [
                    -0.009735981223131893
                ],
                [
                    0.004972475143139038
                ],
                [
                    -0.03951211929429727
                ],
                [
                    -0.019772939364501068
                ],
                [
                    0.06218770932519903
                ],
                [
                    0.09984880164997159
                ],
                [
                    -0.16135353317999307
                ],
                [
                    -0.0584648542118818
                ],
                [
                    -0.005563904576940654
                ],
                [
                    0.13864829928361838
                ],
                [
                    -0.17185394312189997
                ],
                [
                    -0.047592385364797964
                ],
                [
                    -0.1281129856397256
                ],
                [
                    -0.05146428449638122
                ],
                [
                    0.12217553586805238
                ],
                [
                    -0.017381417203457126
                ],
                [
                    0.026452102459593334
                ],
                [
                    -0.1274386967702335
                ],
                [
                    -0.05365953598138069
                ],
                [
                    -0.1719519472778302
                ],
                [
                    0.18732865970706708
                ],
                [
                    -0.10366504052367204
                ],
                [
                    -0.01802541605699813
                ],
                [
                    -0.02182215269822038
                ],
                [
                    -0.01921028450106465
                ],
                [
                    -0.031963175526958675
                ],
                [
                    -0.12655814408731786
                ],
                [
                    0.11123348612849132
                ],
                [
                    -0.08651313954678297
                ],
                [
                    -0.21350442425339985
                ],
                [
                    0.11685171323898771
                ],
                [
                    -0.09428994015560078
                ],
                [
                    -0.10668492446886173
                ],
                [
                    -0.0860065693645545
                ],
                [
                    -0.0011170020848966734
                ],
                [
                    -0.04485827785374324
                ],
                [
                    0.22733546505746102
                ],
                [
                    -0.13569244173111128
                ],
                [
                    -0.03400347672373406
                ],
                [
                    -0.013117848016837082
                ],
                [
                    -0.08960843892444732
                ],
                [
                    -0.10222052701133859
                ],
                [
                    -0.1345236592038886
                ],
                [
                    0.016946326134989538
                ],
                [
                    -0.13057614719387603
                ],
                [
                    0.11577841901634656
                ],
                [
                    0.2776157489119618
                ],
                [
                    0.037937521111676975
                ],
                [
                    0.038580397774436
                ],
                [
                    -0.17475406891981873
                ],
                [
                    -0.19275596492464062
                ],
                [
                    -0.10970922145184686
                ],
                [
                    -0.06611032710130872
                ],
                [
                    0.10757726925239995
                ],
                [
                    -0.014503768735854237
                ],
                [
                    -0.07229115670768735
                ],
                [
                    0.01681981619529365
                ],
                [
                    0.0013671778098198653
                ],
                [
                    0.12121622679776337
                ],
                [
                    -0.09331092137822478
                ],
                [
                    0.22341561657097897
                ],
                [
                    -0.002443858735459857
                ],
                [
                    -0.03358020445701999
                ],
                [
                    -0.058356901580517005
                ],
                [
                    0.06348288208762301
                ],
                [
                    0.022240539734510935
                ],
                [
                    0.20363699398214016
                ],
                [
                    -0.12559413262124255
                ],
                [
                    -0.009046524602473184
                ],
                [
                    -0.03517597162133109
                ],
                [
                    0.00919842542669785
                ],
                [
                    0.023932009179477194
                ],
                [
                    -0.08660753158087843
                ],
                [
                    0.007368565172265564
                ],
                [
                    0.08768340803796118
                ],
                [
                    -0.07976286110644586
                ],
                [
                    0.057482580336294116
                ],
                [
                    0.10378987539493674
                ],
                [
                    0.12449276339583866
                ],
                [
                    0.08807989523803324
                ],
                [
                    0.09330330914368187
                ],
                [
                    0.07336511611663579
                ],
                [
                    0.010764090807953921
                ],
                [
                    -0.060440758201112305
                ],
                [
                    0.22107438267734847
                ],
                [
                    -0.04566108072470944
                ],
                [
                    -0.1420567588994205
                ],
                [
                    0.05680473560603053
                ],
                [
                    -0.05927133691345131
                ],
                [
                    -0.13792091867008544
                ],
                [
                    -0.10391081867916198
                ],
                [
                    -0.03430374993394208
                ],
                [
                    0.038157668068598063
                ],
                [
                    0.04318990426929904
                ],
                [
                    -0.0028146892703866137
                ],
                [
                    -0.016323909129880285
                ],
                [
                    0.10836447575998656
                ],
                [
                    -0.06586026911321873
                ],
                [
                    0.09904620460952904
                ],
                [
                    -0.06517545271918829
                ],
                [
                    0.010867931081734325
                ],
                [
                    0.024324428328585078
                ],
                [
                    -0.09528528142133492
                ],
                [
                    -0.07978491984069065
                ],
                [
                    -0.02830694329127392
                ],
                [
                    0.20984473350064686
                ],
                [
                    0.008998663460669763
                ],
                [
                    0.11677886941693409
                ],
                [
                    -0.1668979614365226
                ],
                [
                    0.03416228944370791
                ],
                [
                    -0.0996634730625748
                ],
                [
                    -0.10174576242984709
                ],
                [
                    0.055629184751162034
                ],
                [
                    0.10154441861234112
                ],
                [
                    0.06179885532800396
                ],
                [
                    0.04389809285913025
                ],
                [
                    -0.02138651029190974
                ],
                [
                    0.03516920649561342
                ],
                [
                    0.009037880742238302
                ],
                [
                    -0.10359534443295558
                ],
                [
                    0.031334464075841444
                ],
                [
                    -0.06319877518214845
                ],
                [
                    -0.11568951109368658
                ],
                [
                    -0.17076354716508627
                ],
                [
                    0.005678914449010153
                ],
                [
                    -0.03504844995218647
                ],
                [
                    -0.09635070705401189
                ],
                [
                    -0.06374158665380479
                ],
                [
                    -0.06457137977976773
                ],
                [
                    0.0974995517755537
                ],
                [
                    0.027291682632651113
                ],
                [
                    -0.03004500745570644
                ],
                [
                    -0.02498912027475734
                ],
                [
                    0.11274213098864547
                ],
                [
                    -0.12010219561599547
                ],
                [
                    -0.10405877168696212
                ],
                [
                    0.0012087233659415302
                ],
                [
                    0.0726424185882502
                ],
                [
                    0.024052396793756196
                ],
                [
                    -0.02431421293559777
                ],
                [
                    0.0914545353615738
                ],
                [
                    0.009285369120727582
                ],
                [
                    0.04605133074805427
                ],
                [
                    -0.33443752899371587
                ],
                [
                    -0.06156458531952525
                ],
                [
                    -0.05222110775358953
                ],
                [
                    -0.014884283884247262
                ],
                [
                    -0.14577708760907285
                ],
                [
                    -0.22829841270033088
                ],
                [
                    -0.091346830937833
                ],
                [
                    0.07772971845322284
                ],
                [
                    -0.01883796990332487
                ],
                [
                    0.11653389837558689
                ],
                [
                    0.028425992363631997
                ],
                [
                    -0.06530880819778206
                ],
                [
                    -0.13540052858474624
                ],
                [
                    0.0595489515545849
                ],
                [
                    0.004171581070674446
                ],
                [
                    -0.052967673492236335
                ],
                [
                    -0.09976808590944128
                ],
                [
                    -0.1181727935076873
                ],
                [
                    0.018094608505062223
                ],
                [
                    0.11129835618561887
                ],
                [
                    -0.037657691685555966
                ],
                [
                    0.019002274398822586
                ],
                [
                    0.0237635191141424
                ],
                [
                    -0.1426411689435301
                ],
                [
                    -0.04884726238314438
                ],
                [
                    -0.015634454435890986
                ],
                [
                    0.039279544019014775
                ],
                [
                    0.05683483771743994
                ],
                [
                    0.0698765470699558
                ],
                [
                    0.12621012126874231
                ],
                [
                    0.03926096679356267
                ],
                [
                    -0.10248153881354588
                ],
                [
                    0.05549301312540414
                ],
                [
                    -0.015819900422305026
                ],
                [
                    -0.038607145372019244
                ],
                [
                    0.03736718201846494
                ],
                [
                    0.1483597389879767
                ],
                [
                    0.09336515862741253
                ],
                [
                    -0.07487411600528819
                ],
                [
                    0.05375663547846481
                ],
                [
                    -0.03967506762932626
                ],
                [
                    -0.009913779742106733
                ],
                [
                    -0.06999251287639097
                ],
                [
                    -0.07509977896244863
                ],
                [
                    -0.00408132450274941
                ],
                [
                    0.13590566150083655
                ],
                [
                    0.03493289269342584
                ],
                [
                    -0.11344397175843274
                ],
                [
                    -0.15143169396076986
                ],
                [
                    -0.010540215399326189
                ],
                [
                    0.08749215588349292
                ],
                [
                    -0.004487790289887497
                ],
                [
                    0.07839700203455384
                ],
                [
                    -0.12418211797984051
                ],
                [
                    -0.057724165821104886
                ],
                [
                    -0.11790990728027707
                ],
                [
                    -0.13000518126354263
                ],
                [
                    -0.07326399305583357
                ],
                [
                    -0.08944832428619258
                ],
                [
                    -0.0852573398119488
                ],
                [
                    0.0645882082812544
                ],
                [
                    -0.10995597230186102
                ],
                [
                    -0.12216688860686799
                ],
                [
                    0.16020553483391398
                ],
                [
                    0.23067846093805286
                ],
                [
                    0.1836979217328863
                ],
                [
                    0.17796808529702515
                ],
                [
                    0.021365640356553205
                ],
                [
                    0.03386764123129805
                ],
                [
                    0.017251741864212244
                ],
                [
                    -0.14036747132848001
                ],
                [
                    -0.15558236399163183
                ],
                [
                    0.17478949513076278
                ],
                [
                    -0.10643889298680276
                ],
                [
                    -0.20159034892871086
                ],
                [
                    -0.005084739129780558
                ],
                [
                    -0.07918901931252878
                ],
                [
                    -0.03882496861079565
                ],
                [
                    -0.12388417310367195
                ],
                [
                    0.09358458130523716
                ],
                [
                    0.04834573701090151
                ],
                [
                    0.04057753900500068
                ],
                [
                    0.0949756051755674
                ],
                [
                    -0.032568762179704544
                ],
                [
                    0.14240707056873161
                ],
                [
                    0.07066629196938887
                ],
                [
                    -0.08454804084759752
                ],
                [
                    -0.0817715912610768
                ],
                [
                    -0.11016987340135002
                ],
                [
                    -0.01966387954771801
                ],
                [
                    0.013218688385350374
                ],
                [
                    -0.03144739730781965
                ],
                [
                    0.22649467119181763
                ],
                [
                    0.03760776825340743
                ],
                [
                    0.21718986857506936
                ],
                [
                    -0.08018603058866003
                ],
                [
                    0.16083554647422324
                ],
                [
                    -0.05566097845837937
                ],
                [
                    -0.008948564647487854
                ],
                [
                    -0.16613597321149556
                ],
                [
                    0.06248086067394541
                ],
                [
                    0.10100419360193119
                ],
                [
                    -0.027060990457644214
                ],
                [
                    -0.026456630309862204
                ],
                [
                    -0.13263153061185395
                ],
                [
                    -0.15052917909775232
                ],
                [
                    0.05321520045427364
                ],
                [
                    -0.022832564665640542
                ],
                [
                    -0.010510990898671576
                ],
                [
                    0.009276810852288327
                ],
                [
                    -0.19044735042289593
                ],
                [
                    -0.03173022354202153
                ],
                [
                    -0.10142964392594694
                ],
                [
                    -0.07313179443450418
                ],
                [
                    0.08510089719294599
                ],
                [
                    0.018084566841875694
                ],
                [
                    -0.05382932471234659
                ],
                [
                    -0.007012637974940827
                ],
                [
                    0.13837574884232337
                ],
                [
                    -0.02916373829343586
                ],
                [
                    0.04115054772823289
                ],
                [
                    0.11060969769355047
                ],
                [
                    0.1336972272560278
                ],
                [
                    0.16006246320863415
                ],
                [
                    0.05827599771605307
                ],
                [
                    -0.08257128304225535
                ],
                [
                    -0.11997961534032286
                ],
                [
                    -0.06128524149947346
                ],
                [
                    -0.07704107327890057
                ],
                [
                    -0.0808108307318742
                ],
                [
                    -0.2264441181963482
                ],
                [
                    0.08314512431713021
                ],
                [
                    -0.15934399012834963
                ],
                [
                    -0.09927201836093995
                ],
                [
                    0.03814898974578805
                ],
                [
                    0.14754458388654634
                ],
                [
                    -0.027176266690878238
                ],
                [
                    -0.019590817984688286
                ],
                [
                    -0.02455044942637974
                ],
                [
                    0.2666487392843799
                ],
                [
                    0.04252402401560257
                ],
                [
                    -0.11331440405604432
                ],
                [
                    -0.0886456304999581
                ],
                [
                    -0.1859699614553297
                ],
                [
                    -0.014384753827596174
                ],
                [
                    0.21674143951480074
                ],
                [
                    0.05239206496752307
                ],
                [
                    0.11483694419670398
                ],
                [
                    0.18622641173158114
                ],
                [
                    0.24515301370617776
                ],
                [
                    0.0321256669499765
                ],
                [
                    0.16872603481955323
                ],
                [
                    0.1037818222825663
                ],
                [
                    -0.11152079702250951
                ],
                [
                    -0.00477898411942193
                ],
                [
                    0.10186187479825695
                ],
                [
                    -0.05816966386000163
                ],
                [
                    -0.013784271660217418
                ],
                [
                    0.13128100060779416
                ],
                [
                    -0.08465060133608344
                ],
                [
                    0.0582916778740466
                ],
                [
                    -0.082373312773495
                ],
                [
                    0.06178618743371812
                ],
                [
                    0.029453002491001662
                ],
                [
                    -0.028526846515740334
                ],
                [
                    0.05081352874586496
                ],
                [
                    0.010822274416788463
                ],
                [
                    -0.013483447198403224
                ],
                [
                    -0.07632496067898482
                ],
                [
                    -0.012432231394954906
                ],
                [
                    -0.11546017212404536
                ],
                [
                    -0.006657036641826252
                ],
                [
                    -0.11295436756296597
                ],
                [
                    0.1413075879195052
                ],
                [
                    0.18314122018823675
                ],
                [
                    0.19857941508403681
                ],
                [
                    0.24696268679081293
                ],
                [
                    0.1919111867224552
                ],
                [
                    -0.041776428881707434
                ],
                [
                    -0.2217523244336027
                ],
                [
                    -0.009203881218027387
                ],
                [
                    0.19207469904750202
                ],
                [
                    -0.021269668902369615
                ],
                [
                    -0.05986529854527534
                ],
                [
                    -0.055929578552253174
                ],
                [
                    -0.20868518394605257
                ],
                [
                    -0.15763836657704355
                ],
                [
                    -0.08814254912430003
                ],
                [
                    0.012497240851087887
                ],
                [
                    -0.02574105155910816
                ],
                [
                    -0.15221128477187074
                ],
                [
                    0.09345503857568312
                ],
                [
                    -0.0930695982939278
                ],
                [
                    -0.17132776714289236
                ],
                [
                    0.014654871092035322
                ],
                [
                    -0.08690254920752077
                ],
                [
                    0.023293333287471078
                ],
                [
                    -0.38559531578502904
                ],
                [
                    -0.12656548956732833
                ],
                [
                    -0.03465368240660614
                ],
                [
                    -0.04151334189401848
                ],
                [
                    -0.013572519764752322
                ],
                [
                    0.023505094444493686
                ],
                [
                    0.22440337640206512
                ],
                [
                    0.14751222588684088
                ],
                [
                    0.10158712050508932
                ],
                [
                    -0.09318879234461692
                ],
                [
                    -0.010680274868510555
                ],
                [
                    0.04444268713367688
                ],
                [
                    -0.20791621142678804
                ],
                [
                    -0.11472999895294494
                ],
                [
                    0.04975894762838407
                ],
                [
                    -0.07083877410475199
                ],
                [
                    -0.1617833718323872
                ],
                [
                    0.022876602384831413
                ],
                [
                    -0.056789836939055184
                ],
                [
                    -0.02286814567173443
                ],
                [
                    -0.03144799568250863
                ],
                [
                    0.06709527716286384
                ],
                [
                    -0.001081675552279448
                ],
                [
                    -0.035100566749663276
                ],
                [
                    0.1631891819408516
                ],
                [
                    0.03799451243591499
                ],
                [
                    -0.0847729844418773
                ],
                [
                    0.11020389932006305
                ],
                [
                    -0.12358206847570373
                ],
                [
                    -0.23657269846601017
                ],
                [
                    -0.09322483096988451
                ],
                [
                    0.09591486323907125
                ],
                [
                    0.04249460039831778
                ],
                [
                    -0.0037015693158052145
                ],
                [
                    0.11465614080969226
                ],
                [
                    0.023760016877333427
                ],
                [
                    -0.06514782148677023
                ],
                [
                    0.04251015401363103
                ],
                [
                    -0.07736383632127039
                ],
                [
                    -0.045597485502351646
                ],
                [
                    -0.21519190926276413
                ],
                [
                    -0.1823531275326644
                ],
                [
                    0.0953114864486827
                ],
                [
                    0.04238770130794359
                ],
                [
                    0.07003557274333477
                ],
                [
                    0.0680917665775606
                ],
                [
                    -0.11720752268360067
                ],
                [
                    -0.10979566111143177
                ],
                [
                    -0.06954923778026553
                ],
                [
                    0.02726921033004079
                ],
                [
                    -0.06654937093815073
                ],
                [
                    -0.03601476732093709
                ],
                [
                    -0.08667036065197783
                ],
                [
                    -0.2601654365833248
                ],
                [
                    -0.18059134885862527
                ],
                [
                    -0.06786894118915077
                ],
                [
                    -0.10868597829301742
                ],
                [
                    -0.22300071268018914
                ],
                [
                    0.02996789406323527
                ],
                [
                    0.08806498204660732
                ],
                [
                    0.060777359388523765
                ],
                [
                    -0.00014281082441670637
                ],
                [
                    0.1491862965833349
                ],
                [
                    0.20167184876959743
                ],
                [
                    0.0589082190458192
                ],
                [
                    -0.16226865057495465
                ],
                [
                    0.07183822230607
                ],
                [
                    0.07916844787417361
                ],
                [
                    -0.06150715004042298
                ],
                [
                    -0.10999512175604845
                ],
                [
                    -0.16546487315690303
                ],
                [
                    -0.004489610940701123
                ],
                [
                    -0.022054020499872838
                ],
                [
                    0.0565799316662437
                ],
                [
                    -0.050116205973953665
                ],
                [
                    -0.07972218064607461
                ],
                [
                    -0.01105338082292118
                ],
                [
                    -0.1372934125393048
                ],
                [
                    -0.0008591567085970463
                ],
                [
                    0.05570035476571861
                ],
                [
                    -0.018028051217653364
                ],
                [
                    0.07065776604506958
                ],
                [
                    -0.030101987590437515
                ],
                [
                    -0.2807579705113346
                ],
                [
                    -0.04828208987312784
                ],
                [
                    -0.08967477463287997
                ],
                [
                    -0.20680274346447855
                ],
                [
                    0.002434583252431256
                ],
                [
                    0.13869033251578122
                ],
                [
                    -0.01414056844765855
                ],
                [
                    0.31600739533039407
                ],
                [
                    0.03993364040429469
                ],
                [
                    -0.004520337152687068
                ],
                [
                    -0.020500642985866294
                ],
                [
                    -0.02227616395697747
                ],
                [
                    -0.1935901397011924
                ],
                [
                    0.008066218037298825
                ],
                [
                    0.0016740988277898373
                ],
                [
                    -0.0437158015254122
                ],
                [
                    0.06489163722347688
                ],
                [
                    -0.12626320426674578
                ],
                [
                    0.07125141606771154
                ],
                [
                    0.0076498805059846894
                ],
                [
                    0.0297191848026217
                ],
                [
                    -0.03169203267732858
                ],
                [
                    -0.05239389744976153
                ],
                [
                    0.057202201813853396
                ],
                [
                    -0.06431254273520026
                ],
                [
                    -0.12343294615846354
                ],
                [
                    -0.0022599355489922534
                ],
                [
                    -0.010168953588622149
                ],
                [
                    -0.13900200030635368
                ],
                [
                    -0.27625651267950946
                ],
                [
                    -0.237164733240171
                ],
                [
                    -0.3811094378494216
                ],
                [
                    0.12507843852253253
                ],
                [
                    -0.05184703358092181
                ],
                [
                    0.1273486304287112
                ],
                [
                    0.036645975369964584
                ],
                [
                    0.058435427222921006
                ],
                [
                    -0.1195501434184505
                ],
                [
                    0.08998022252875554
                ],
                [
                    0.07960886645826423
                ],
                [
                    0.0806975942662419
                ],
                [
                    0.029606444172552426
                ],
                [
                    -0.046951516760341636
                ],
                [
                    -0.0328074965757409
                ],
                [
                    0.04425349573643747
                ],
                [
                    0.19179763883079012
                ],
                [
                    -0.05070290837659453
                ],
                [
                    -0.08559098325048695
                ],
                [
                    0.07161067821353782
                ],
                [
                    -0.00977362173210176
                ],
                [
                    -0.14124348372313766
                ],
                [
                    -0.1917552615685494
                ],
                [
                    0.09732975076015707
                ],
                [
                    -0.09618223821127915
                ],
                [
                    0.0030324671602447273
                ],
                [
                    0.09634664055633624
                ],
                [
                    -0.13642384657127252
                ],
                [
                    -0.09416249734547086
                ],
                [
                    -0.020462591309504848
                ],
                [
                    -0.1467321648469984
                ],
                [
                    -0.0942255657685199
                ],
                [
                    0.03892435397438894
                ],
                [
                    -0.10331240493184517
                ],
                [
                    -0.03186703117277144
                ],
                [
                    -0.049853897203445074
                ],
                [
                    0.05333494159233651
                ],
                [
                    -0.2052674929604624
                ],
                [
                    -0.03053843589348713
                ],
                [
                    0.12387106515766777
                ],
                [
                    -0.13225938379834265
                ],
                [
                    0.025280406373193908
                ],
                [
                    0.04651727254269704
                ],
                [
                    -0.019480094501525005
                ],
                [
                    0.022896020769605445
                ],
                [
                    -0.15815979118580625
                ],
                [
                    0.02802560434878561
                ],
                [
                    -0.036612163079524244
                ],
                [
                    0.018964894537004826
                ],
                [
                    -0.06422033082318346
                ],
                [
                    -0.06485313830286334
                ],
                [
                    0.006372176414501539
                ],
                [
                    -0.11053596760055347
                ],
                [
                    -0.11288603020780014
                ],
                [
                    0.023644974880180424
                ],
                [
                    0.01800399146222208
                ],
                [
                    -0.06414020561371743
                ],
                [
                    -0.036503536005706154
                ],
                [
                    0.13800581511311613
                ],
                [
                    -0.04804096508224195
                ],
                [
                    0.020887650507834667
                ],
                [
                    0.07217034541458033
                ],
                [
                    -0.1393522283821751
                ],
                [
                    0.020193480986150876
                ],
                [
                    -0.05855363439617807
                ],
                [
                    0.1595798643514339
                ],
                [
                    0.015404685041095762
                ],
                [
                    -0.2055663190693327
                ],
                [
                    0.03688902028463066
                ],
                [
                    -0.06462813212269311
                ],
                [
                    -0.0012456428317005378
                ],
                [
                    0.24910552140240858
                ],
                [
                    0.02287166830277396
                ],
                [
                    -0.04032636293534615
                ],
                [
                    0.021873467277100843
                ],
                [
                    -0.02762664105314383
                ],
                [
                    0.08472871131043228
                ],
                [
                    -0.03776383196232641
                ],
                [
                    -0.08615036024663784
                ],
                [
                    -0.029874718607957308
                ],
                [
                    -0.049875350024137496
                ],
                [
                    -0.05621130973608357
                ],
                [
                    0.259869968073532
                ],
                [
                    0.13549829487621315
                ],
                [
                    -0.056674055557357994
                ],
                [
                    0.08179714510844069
                ],
                [
                    -0.0317274844074287
                ],
                [
                    -0.27744342484393847
                ],
                [
                    0.02584887664089742
                ],
                [
                    0.12334818347898101
                ],
                [
                    -0.029994354747197933
                ],
                [
                    0.09164339997562121
                ],
                [
                    -0.04036877285458489
                ],
                [
                    -0.05584876528887478
                ],
                [
                    -0.05970032282342347
                ],
                [
                    -0.10542013655339347
                ],
                [
                    -0.04936828582402048
                ],
                [
                    0.016431234364564562
                ],
                [
                    0.13094081744072744
                ],
                [
                    -0.02361476802069465
                ],
                [
                    0.20698709906790677
                ],
                [
                    0.1362206310361346
                ],
                [
                    -0.0370281639976183
                ],
                [
                    -0.15318253861757253
                ],
                [
                    0.03462148938477889
                ],
                [
                    0.029560530222808957
                ],
                [
                    -0.0913847033468889
                ],
                [
                    -0.1277335403826154
                ],
                [
                    0.08178655519371121
                ],
                [
                    0.03689028428354364
                ],
                [
                    0.11703293371357575
                ],
                [
                    0.08027742357684924
                ],
                [
                    -0.131799236540162
                ],
                [
                    0.22108868752068675
                ],
                [
                    -0.1420132143632877
                ],
                [
                    0.055767901139136586
                ],
                [
                    0.07042218485385134
                ],
                [
                    -0.04143448909385933
                ],
                [
                    -0.08680915950331339
                ],
                [
                    -0.004245140224251912
                ],
                [
                    -0.011539765957746065
                ],
                [
                    0.20705207265884337
                ],
                [
                    0.09713624309220194
                ],
                [
                    0.06320729620982721
                ],
                [
                    -0.2029257425408326
                ],
                [
                    -0.02533756168042989
                ],
                [
                    -0.059861005764563144
                ],
                [
                    0.017852698947086586
                ],
                [
                    -0.025336334926902213
                ],
                [
                    -0.04927470452605692
                ],
                [
                    0.1860789875401338
                ],
                [
                    0.11861200090652749
                ],
                [
                    -0.1199594399389469
                ],
                [
                    -0.0616720801846299
                ],
                [
                    0.048670281129679055
                ],
                [
                    -0.217776414670665
                ],
                [
                    0.16656660883611435
                ],
                [
                    0.0876266537307418
                ],
                [
                    0.10590858737505426
                ],
                [
                    -0.05891253833932575
                ],
                [
                    0.12662251753461976
                ],
                [
                    -0.16024101725966056
                ],
                [
                    0.05282002050706928
                ],
                [
                    -0.07444427657878498
                ],
                [
                    0.18615509994012266
                ],
                [
                    0.10567881929301932
                ],
                [
                    -0.005960254976078253
                ],
                [
                    -0.038683861118020586
                ],
                [
                    -0.09818378884636562
                ],
                [
                    0.184624271364248
                ],
                [
                    0.2101960352990278
                ],
                [
                    -0.20404258947072768
                ],
                [
                    0.08163434217131355
                ],
                [
                    0.02588913766072259
                ],
                [
                    -0.006382660310137091
                ],
                [
                    -0.0161469433766159
                ],
                [
                    0.008342822874846495
                ],
                [
                    0.06516240676127215
                ],
                [
                    0.09697747721182065
                ],
                [
                    -0.11434725139350443
                ],
                [
                    -0.05047055982957698
                ],
                [
                    -0.1794499074873792
                ],
                [
                    0.03404896427599407
                ],
                [
                    -0.005537712950721809
                ],
                [
                    0.171530040601755
                ],
                [
                    -0.07104495529831109
                ],
                [
                    0.11097012886981994
                ],
                [
                    -0.09122716628191013
                ],
                [
                    -0.16313710768080156
                ],
                [
                    0.024806668741955362
                ],
                [
                    -0.13082943023665627
                ],
                [
                    0.14971253257591746
                ],
                [
                    -0.15452756824618172
                ],
                [
                    0.03402890745646265
                ],
                [
                    -0.0008250223046812196
                ],
                [
                    -0.039962882991802694
                ],
                [
                    0.06317912572262945
                ],
                [
                    -0.04376949604512856
                ],
                [
                    0.12921098945105136
                ],
                [
                    0.0664010709807553
                ],
                [
                    0.03395394224586527
                ],
                [
                    -0.13763200941683434
                ],
                [
                    -0.10795126767490684
                ],
                [
                    0.08884344147055195
                ],
                [
                    0.08959936545184667
                ],
                [
                    -0.002507188479302235
                ],
                [
                    0.015610894780792415
                ],
                [
                    -0.05026692606829735
                ],
                [
                    -0.06991874962598815
                ],
                [
                    -0.042878956525380214
                ],
                [
                    -0.08458000584059543
                ],
                [
                    0.13926224858878475
                ],
                [
                    -0.0853850382772397
                ],
                [
                    0.02077558303611479
                ],
                [
                    -0.06485653427847841
                ],
                [
                    -0.11149937147114904
                ],
                [
                    -0.05984529832050033
                ],
                [
                    -0.03648321567107592
                ],
                [
                    0.05430705038817366
                ],
                [
                    -0.12710069716690522
                ],
                [
                    -0.06133454386091928
                ],
                [
                    0.11003157126918113
                ],
                [
                    0.03404736723402594
                ],
                [
                    -0.11732728240584263
                ],
                [
                    -0.06477868358111448
                ],
                [
                    -0.02028715315751563
                ],
                [
                    0.11539158551165037
                ],
                [
                    0.039248436166525284
                ],
                [
                    0.049029947505686663
                ],
                [
                    0.17257522353821295
                ],
                [
                    0.07228045588347508
                ],
                [
                    -0.11316344499468858
                ],
                [
                    -0.0536308478745265
                ],
                [
                    0.07878620559783933
                ],
                [
                    -0.03004272690447228
                ],
                [
                    0.07680740763111461
                ],
                [
                    0.012844979879964805
                ]
            ],
            "weights_constraints": null,
            "activation": "sigmoid",
            "type": "Dense"
        }
    }
}