{
    "metrics": [
        "accuracy"
    ],
    "trainable": true,
    "verbose": true,
    "cost": "mse",
    "layers": {
        "layer1": {
            "bias": [
                [
                    0.10999384731148182,
                    0.02384980110780443,
                    -0.14905025466488206,
                    0.057246782788098076,
                    -0.017840211111529235,
                    0.040236954109322855,
                    -0.08279495906237637,
                    -0.06545254913865658,
                    -0.19085866374326532,
                    -0.024726787597696955,
                    -0.03723618493465532,
                    0.09312913345641723,
                    0.05075537285633282,
                    0.1341070668429495,
                    0.01992038716646144,
                    0.3880965479010616,
                    -0.151689334450939,
                    -0.16760271333018803,
                    0.04637703183485634,
                    -0.11178467308803504,
                    -0.13315193718534463,
                    -0.12454202158440858,
                    -0.11325339761540187,
                    -0.16698432627439774,
                    0.03326015645359249,
                    0.037156454232383486,
                    0.2707467588056014,
                    -0.09067338660923684
                ]
            ],
            "bias_constraints": null,
            "built": true,
            "input_shape": [
                784
            ],
            "kw_params": [
                "input_shape",
                "activation",
                "trainable",
                "use_bias",
                "weights_constraints",
                "bias_constraints",
                "learning_rate"
            ],
            "learning_rate": 0.01,
            "name": "Dense Layer",
            "nodes": 28,
            "non_trainable_params": 0,
            "output_shape": [
                28
            ],
            "pos_params": [
                "nodes"
            ],
            "trainable": true,
            "trainable_params": 21980,
            "use_bias": true,
            "weights": [
                [
                    0.01466960774829186,
                    -0.18980495241788053,
                    0.06776887597684841,
                    0.12829976557110806,
                    0.16593109812982598,
                    -0.05273775893256765,
                    0.07039884947268497,
                    -0.0017720720465712108,
                    0.23702294280977232,
                    0.013685986212414188,
                    0.016093194058642776,
                    0.10919370813176042,
                    -0.17004509709013316,
                    -0.01910960942443419,
                    0.05164410060149826,
                    0.07245085584039647,
                    0.03067263056621829,
                    -0.09606827256028543,
                    0.09091098452678208,
                    -0.07711091923316751,
                    -0.018133436332517055,
                    -0.061779418020730226,
                    -0.07824732426404585,
                    0.0546658190336545,
                    -0.24098950435802902,
                    0.11704428896975697,
                    -0.07406128005764702,
                    0.003390002813732215
                ],
                [
                    -0.09942294789316058,
                    0.04192768441415289,
                    -0.06029955568781123,
                    0.07746419468662682,
                    0.03590327356419084,
                    -0.10385366987324163,
                    0.027357481618649496,
                    -0.02974989420820287,
                    -0.05019727073095298,
                    0.013311752046868412,
                    -0.10521530985440336,
                    -0.07311720803247511,
                    0.18805952987593888,
                    0.03505812975894237,
                    -0.20868536476107644,
                    0.04231475711751922,
                    -0.021787206819025455,
                    -0.14312818407848404,
                    0.15808295656841864,
                    0.0929695245802078,
                    0.05856603070425598,
                    0.04184050443821026,
                    -0.0826719404875545,
                    -0.007506684676217783,
                    0.03281162560612343,
                    0.05990971834430077,
                    -0.08047332799866977,
                    -0.09590587424541544
                ],
                [
                    -0.06342126391792956,
                    -0.11101043968139981,
                    0.12468360910781653,
                    0.12752584537565778,
                    -0.12988157799952618,
                    -0.020604411317678786,
                    -0.10556933352974207,
                    0.12344570954631212,
                    -0.20299593456076206,
                    -0.030755387589561475,
                    -0.05131816652262251,
                    -0.04177768992191596,
                    0.10340048054379916,
                    -0.15425447022063546,
                    0.153731940124726,
                    0.08266662030493147,
                    -0.10484501402734508,
                    0.11790935781394905,
                    -0.1325196794286613,
                    0.06781079201198374,
                    0.060277446722208,
                    -0.12269673900725615,
                    0.0811938776454438,
                    0.09667475150011567,
                    0.13158407707148473,
                    0.13671877662318674,
                    0.0672233913419765,
                    -0.02760487667752556
                ],
                [
                    0.027712297980787066,
                    -0.04799644016877712,
                    -0.0017011309447012846,
                    -0.14499713872753953,
                    -0.05847164565205464,
                    0.1079279613500843,
                    0.12419519441423169,
                    -0.05223224702255363,
                    -0.17371611079163365,
                    0.14589873920648286,
                    -0.06969327314238852,
                    0.07427466107196548,
                    -0.03071724009736398,
                    0.005092044623323824,
                    -0.014215749099388154,
                    -0.002355389630645501,
                    -0.13991411033335718,
                    -0.025005104378109905,
                    -0.03955794272733196,
                    -0.04297849941012262,
                    -0.006076813088722166,
                    -0.02559029122182792,
                    -0.06041227497947606,
                    -0.10403429901647446,
                    -0.12990893665675315,
                    -0.09989819024809049,
                    0.06047505288080986,
                    -0.01706559404362041
                ],
                [
                    -0.07723797770396947,
                    -0.03331769724016697,
                    -0.0045537188845896,
                    0.04754035925422432,
                    0.013048581832456527,
                    0.027657128183015328,
                    -0.07615056034805975,
                    0.08670435619277367,
                    -0.05259535510782914,
                    0.13743628895554202,
                    -0.19623435550907126,
                    -0.07299393466414124,
                    -0.0518014868600329,
                    -0.06526992186095158,
                    -0.08073183393130398,
                    0.036359422415043884,
                    0.05646728827406752,
                    0.038387904888932144,
                    -0.018986545591296092,
                    0.01703458871187371,
                    0.09538919118972675,
                    -0.012444348957846303,
                    -0.044024780911628564,
                    -0.010617244104105557,
                    -0.09224233403911672,
                    0.009277006666511826,
                    0.04044564456604637,
                    -0.09465206832765294
                ],
                [
                    0.023241042746560543,
                    -0.048227060370955935,
                    0.0381786196349823,
                    -0.14063456684173858,
                    -0.019251327243372904,
                    0.0010628735327761509,
                    0.055511902548716754,
                    0.04277247647822066,
                    0.12181448108018787,
                    -0.0972729601903124,
                    -0.056660277326505505,
                    -0.010389889662686641,
                    0.053587024563744916,
                    0.1256286305051257,
                    0.07455346839904324,
                    0.1486290061724575,
                    0.062154466236157974,
                    0.08349047516744103,
                    0.06028766091306234,
                    -0.030295059469452674,
                    0.13865326990529764,
                    -0.04739251301111558,
                    0.18695635853789216,
                    0.014888145509517598,
                    0.07244956855307279,
                    0.0010219990156886498,
                    0.21143194948974697,
                    0.06284478116307103
                ],
                [
                    0.11646368715842914,
                    0.008204490494681863,
                    0.013682825790174748,
                    0.1466515161001761,
                    -0.12972215120937006,
                    0.08140179990521929,
                    -0.10346452532891158,
                    0.12119670556671697,
                    -0.027280399911099703,
                    -0.024821620332622245,
                    -0.06016852345644905,
                    -0.06431410028478901,
                    0.0640831389854415,
                    0.10565785642184947,
                    -0.14527337932282974,
                    -0.03629851445773983,
                    -0.01938250627133658,
                    0.02460414877924146,
                    -0.09964843078045338,
                    0.040738425222684574,
                    0.12412838045237284,
                    0.1628862487788549,
                    0.19408326884648514,
                    -0.12549111458092216,
                    0.05003687917445043,
                    -0.08381063303736522,
                    0.05971205587723404,
                    -0.018958242371886744
                ],
                [
                    -0.06411566075590196,
                    0.12766244945063274,
                    0.02480495100116378,
                    -0.19830507920482568,
                    0.1525837666004871,
                    0.0035370940260009594,
                    0.10870689127179245,
                    0.14686928191446835,
                    -0.03900262038649701,
                    -0.08386701639313089,
                    -0.04392509285641368,
                    0.018637779556176747,
                    -0.03150647846656043,
                    -0.09521368663281068,
                    0.1543922023396966,
                    -0.15634165429845945,
                    -0.08673686200541462,
                    -0.21438801036610894,
                    0.03557574457622615,
                    -0.05398508564483539,
                    0.14305869025555745,
                    -0.052323444425782385,
                    -0.06831096530058024,
                    -0.07735013114976116,
                    -0.020593102801899407,
                    0.20282016500506775,
                    -0.012921449590168188,
                    -0.09581307425757474
                ],
                [
                    -0.07578688228071469,
                    -0.0418143468763108,
                    0.048361045070811785,
                    -0.09043124595253799,
                    0.016300545518861922,
                    0.09669757562146925,
                    -0.02225673645004689,
                    -0.033943549326545065,
                    0.1705733626518702,
                    0.08408823609751634,
                    0.15495590149224084,
                    0.0008431659129578639,
                    -0.07011253780051367,
                    0.026250183585527793,
                    -0.18194394527936067,
                    -0.09462163097099152,
                    -0.040152071294354996,
                    0.14060829815688722,
                    0.08884552327911174,
                    0.08282650434832134,
                    -0.04641607817110953,
                    -0.12851284466975899,
                    -0.0001439221346458193,
                    0.09312092716753977,
                    -0.02432574388603949,
                    -0.13319262683253524,
                    -0.2421983361333554,
                    0.12568147784662326
                ],
                [
                    -0.09901165095673894,
                    -0.17394575239747959,
                    -0.02532231550486538,
                    0.19898805278441867,
                    0.09748985626322637,
                    -0.09366700785655953,
                    0.06561662744446965,
                    -0.023262374100948377,
                    -0.0542588870738264,
                    -0.12122129202433905,
                    -0.1890189276120563,
                    -0.04131016647095781,
                    -0.058994099642054,
                    -0.008940099668173029,
                    0.10351667496367545,
                    0.11307879694054535,
                    -0.011962313463495841,
                    0.013663155979800796,
                    0.09660339275616452,
                    0.0013707311343809472,
                    0.2569639975875351,
                    -0.016460555972095486,
                    0.0894541607034322,
                    0.16797931243860553,
                    0.006857349052097274,
                    0.1529352362896539,
                    -0.03603450780184911,
                    0.00334738096125178
                ],
                [
                    -0.03067545408814741,
                    0.10607942974119942,
                    -0.09549889328989165,
                    -0.11526375970927052,
                    -0.0048518392992033844,
                    0.027388633012124526,
                    -0.03443792448062379,
                    -0.1615991439220013,
                    -0.10052715463331828,
                    0.13090267454542825,
                    0.07997956988724153,
                    -0.0036098678378557302,
                    0.15034882484629697,
                    0.0523976991224197,
                    0.060392727786621185,
                    -0.10235563635487457,
                    -0.017662320448187253,
                    0.09750966997666823,
                    0.11174263288786056,
                    -0.04139107427642633,
                    -0.2542977229385801,
                    -0.0007454588597081572,
                    -0.03548267485268047,
                    0.06805841957943025,
                    -0.17782026539033466,
                    0.006007579767537924,
                    -0.08753855951819396,
                    -0.0732993611180363
                ],
                [
                    -0.09782650657411929,
                    -0.02468587290965553,
                    -0.11214455626314335,
                    0.011737883147182217,
                    -0.15659345385886117,
                    0.08049961532902607,
                    -0.1697482452150791,
                    -0.02416520787908701,
                    0.04589761266434552,
                    -0.01902738493193603,
                    0.17311941511753473,
                    0.12335335918408966,
                    0.12852995771719042,
                    -0.11221987019048468,
                    -0.11883960717584854,
                    -0.1041360272805348,
                    -0.10731103358325318,
                    0.06846930568693443,
                    -0.07897031839810491,
                    0.001167357375462325,
                    0.15156468925890187,
                    0.09827215047698455,
                    -0.04629728827108285,
                    0.07823779071427206,
                    0.014543653301841517,
                    0.24833538435806168,
                    -0.1429684134026695,
                    -0.08884101805710728
                ],
                [
                    -0.010686945529180533,
                    -0.017792239186276308,
                    -0.005275153091386828,
                    0.07413275690948393,
                    0.005393540311110652,
                    0.031126834874509166,
                    -0.016246635326260372,
                    -0.1094000283722634,
                    -0.14075768686663376,
                    -0.09327732895805163,
                    0.13313675766431066,
                    0.02843705206129027,
                    -0.01802010546367597,
                    0.180925876027286,
                    -0.058319006988334365,
                    -0.1731530072450834,
                    0.10274906278177716,
                    0.08477486773827986,
                    -0.03174721947237604,
                    -0.14830446294362287,
                    -0.031223600849431918,
                    -0.0009098990295678382,
                    -0.016287853900691627,
                    0.10112831766398299,
                    -0.05659873328425118,
                    0.14213954167436013,
                    -0.020406225782220063,
                    0.03787458795845705
                ],
                [
                    0.0407648921222384,
                    0.20860254620922972,
                    -0.024173188003968383,
                    0.00015025903634565833,
                    -0.08109245494029588,
                    0.013301459962224899,
                    0.045483080187600756,
                    -0.05179361953733135,
                    0.1185725235643863,
                    0.012603677938498432,
                    0.008702650817546951,
                    -0.1005841169202826,
                    -0.08167525423306042,
                    -0.14348669964918445,
                    -0.04555150043529786,
                    0.06160853346952047,
                    -0.05193237363781972,
                    0.1667419823229096,
                    0.06483666732090752,
                    -0.07720089847391097,
                    0.008085330856460777,
                    -0.019602473365000796,
                    -0.022496751185269837,
                    0.06491223773291911,
                    0.1515081269940323,
                    0.04073858312047174,
                    0.08064606707597895,
                    -0.10555094113260133
                ],
                [
                    0.14622090812619867,
                    0.004252162402763271,
                    0.17224494127664458,
                    0.05879683613971947,
                    -0.01692902604118719,
                    0.010996243111274706,
                    0.15703165935873442,
                    -0.05441946184183697,
                    0.0184155445058807,
                    0.0950518643282911,
                    0.026077804262008775,
                    -0.06430173599496984,
                    0.07765272524859208,
                    0.005262824255829625,
                    -0.035889723336003924,
                    -0.09793580210930096,
                    -0.01680933993801691,
                    -0.04289612864283322,
                    -0.1567720122396168,
                    0.0010153403933665732,
                    0.07710599659445222,
                    -0.12772326200059367,
                    -0.004460371651963088,
                    0.05160009070484222,
                    -0.11065805790145572,
                    -0.09226049364054845,
                    -0.07638144515715789,
                    0.16398929033916165
                ],
                [
                    0.09464748518384682,
                    0.019656502865102732,
                    -0.054751451482384875,
                    -0.11326342040269824,
                    -0.11654640956014713,
                    -0.023097397387477618,
                    -0.0576944021926933,
                    -0.09473108353255617,
                    0.04478006061583861,
                    -0.043517497181941416,
                    0.19256128571415884,
                    -0.005554579887263485,
                    -0.16237662814209813,
                    -0.034969901056503876,
                    0.024022897589427394,
                    -0.04712932707439238,
                    -0.09705648969649074,
                    -0.06593091544030817,
                    -0.07027321301529252,
                    -0.09570744164763781,
                    -0.03776176010478321,
                    -0.07894602414019977,
                    -0.0828108415409381,
                    0.03432870526287476,
                    -0.06049815305208486,
                    0.11845568247910164,
                    -0.14280377777395115,
                    -0.05659837024468938
                ],
                [
                    0.18851803807867,
                    0.07741315477607358,
                    0.011485701496162265,
                    -0.1989997454207092,
                    0.06137788959718852,
                    0.12498323285479687,
                    -0.03090294966204031,
                    0.25058676051195133,
                    0.02873034048185846,
                    0.20150427006439806,
                    -0.18469020863801366,
                    -0.05914763488144908,
                    -0.10623097775042067,
                    -0.013908523335839335,
                    0.15582022242606552,
                    -0.15205246298940686,
                    0.1547212793510148,
                    0.08801550936959233,
                    -0.0623919710864905,
                    0.08286551459787572,
                    -0.16982556769490142,
                    -0.27612372093854837,
                    -0.07524190951523657,
                    0.11620095942026357,
                    0.06605635909026701,
                    0.05216663338518053,
                    0.1207618188692504,
                    0.0633321053481151
                ],
                [
                    -0.08561612144932453,
                    -0.10932558079346098,
                    -0.12818307717189686,
                    0.04829064158830125,
                    -0.13256540331594577,
                    -0.003647888145121172,
                    -0.03775481891047756,
                    -0.34152264631428836,
                    -0.23319508336715394,
                    -0.050127416499130655,
                    -0.011816035442817757,
                    -0.041518030540291864,
                    -0.2981688238717542,
                    0.10778335166436036,
                    -0.03844348010389234,
                    -0.12236731177384788,
                    0.0403943791542242,
                    -0.02645669527438148,
                    -0.09683319546908986,
                    0.09185867748941533,
                    -0.0052834864209418955,
                    0.0922903516705446,
                    -0.08790129538834575,
                    0.0965845543908544,
                    0.12905265320976808,
                    0.1087522788322965,
                    -0.05460344602364523,
                    -0.054400436145391466
                ],
                [
                    -0.12243428413262376,
                    0.0898935617993675,
                    0.04072375641303708,
                    0.0034729508317834115,
                    -0.1954816661900034,
                    -0.06187704931866411,
                    0.015635628717342153,
                    -0.08363240394975932,
                    -0.15933526332324446,
                    0.04520431715386989,
                    0.08734665336587646,
                    -0.05275864252680406,
                    0.022222331467062442,
                    0.01565455923171849,
                    0.24874611114178477,
                    0.20736610075609818,
                    0.10403982290107912,
                    0.01086021693441596,
                    -0.005849329957156845,
                    -0.28522996456698496,
                    -0.08942886578805291,
                    0.07127397985657095,
                    -0.1396228031496104,
                    -0.06902386960323283,
                    0.19042794806731342,
                    -0.012492452112503391,
                    0.034921433005820776,
                    -0.15375926139599896
                ],
                [
                    0.02702545271283508,
                    0.04980479769547828,
                    0.011348732184799875,
                    0.0962335169457153,
                    -0.06600007976486394,
                    0.05924993334795612,
                    0.06798668316115648,
                    -0.033648815342975036,
                    -0.019679606452675445,
                    -0.036465645785885216,
                    -0.14280418833899705,
                    -0.0063460833986632385,
                    -0.01643565816260675,
                    -0.10468936080313658,
                    -0.08301130088821285,
                    0.09353094014790905,
                    0.115738477005752,
                    -0.004718181512139585,
                    0.022005331495039082,
                    0.08154614873185972,
                    -0.022204344683540763,
                    -0.009491295318842415,
                    0.03846584033607096,
                    0.0118803016442998,
                    -0.1958956528089864,
                    -0.0031922618090965424,
                    0.18489695205832404,
                    0.07265271793922483
                ],
                [
                    -0.012247139308950362,
                    0.2658006948136916,
                    -0.06983604932590913,
                    -0.18680884952141885,
                    0.07907642284875877,
                    0.05437352254583114,
                    0.15104146144922648,
                    0.004614268411975533,
                    0.027043464262366396,
                    -0.01179669075148396,
                    -0.02093137458040749,
                    -0.0018428451083522608,
                    -0.09083976930957283,
                    0.09563065870043265,
                    0.026350208116551456,
                    0.04138593209420789,
                    -0.02563935025458383,
                    0.08246793615983769,
                    -0.0799975767484205,
                    0.05578925885755895,
                    -0.10273672698672341,
                    0.05512735287105572,
                    0.077603504476526,
                    -0.03944719558262618,
                    0.1276056080177089,
                    0.012453294583963855,
                    0.08641896286730494,
                    -0.04546649757937134
                ],
                [
                    -0.12789742456769612,
                    -0.1358893641667989,
                    0.2418654620264533,
                    0.01503419876593639,
                    0.10939945111407168,
                    -0.06408955244415988,
                    -0.10530293074592226,
                    0.10241804109601899,
                    -0.035241732018686904,
                    -0.28573116439472596,
                    0.04087993934774619,
                    0.10261039655358167,
                    0.10642206787102565,
                    0.06641970267306596,
                    0.17329886254460264,
                    0.07166678489861267,
                    -0.06456383230804105,
                    0.06312609711937521,
                    0.0028244796555543586,
                    0.05700905963536142,
                    0.056503455579342124,
                    -0.0027621562441346795,
                    -0.00010144928446586808,
                    -0.07157003114366432,
                    0.11562814435271823,
                    -0.1930526041614266,
                    -0.19216478413074356,
                    -0.04973757690061977
                ],
                [
                    0.13763949758269692,
                    -0.01457345866204089,
                    0.1719591185711948,
                    -0.03854442984858366,
                    -0.04935490766543917,
                    -0.0262458270175816,
                    -0.052712730407545996,
                    0.05188363807789316,
                    0.28158793989160885,
                    0.09540639026093045,
                    -0.002996420946653902,
                    -0.1645704959905225,
                    0.16763410044188154,
                    0.12690600878824818,
                    -0.014072674219516008,
                    -0.11331258591002447,
                    -0.018906817761904445,
                    -0.1415423213521809,
                    -0.17273757365619682,
                    0.16334140393894692,
                    -0.11855477784446469,
                    -0.06350167548759587,
                    -0.05952621754805744,
                    0.0833294317870787,
                    -0.24579507116123517,
                    -0.07954470742213421,
                    0.18711527947890905,
                    -0.1879647925802271
                ],
                [
                    -0.06345862687286205,
                    -0.017867453588065095,
                    -0.06589247911480844,
                    0.1056093911267415,
                    0.08006224355466283,
                    0.009890638743136136,
                    0.03738092471543987,
                    -0.08194595982241175,
                    0.0627664430366424,
                    -0.051597396670000434,
                    -0.11464267860307725,
                    0.06868946331308794,
                    -0.03474032733536964,
                    0.02662336091699081,
                    0.0627808327563215,
                    0.09092384515652402,
                    -0.04605818203008743,
                    -0.005786434960684755,
                    0.11248276235869481,
                    0.09668207266136819,
                    -0.094631801833182,
                    -0.11926062053867373,
                    0.14049020027924297,
                    0.058978884567406735,
                    0.19899522393189295,
                    0.08115029878970312,
                    -0.036776757422979034,
                    -0.018523691689716355
                ],
                [
                    0.13982934852688456,
                    -0.01791715316524669,
                    0.037591350654228486,
                    0.03284854940113943,
                    0.04595819607909342,
                    -0.2387567895831779,
                    0.07962686318456463,
                    -0.0019585148603691502,
                    -0.06631915716016444,
                    -0.13875854678910168,
                    0.006588266307797276,
                    4.5651145241413454e-05,
                    -0.04740623078396194,
                    0.16181733873444618,
                    -0.08277319534533611,
                    0.009066506723863164,
                    -0.14356229857501854,
                    0.06215613334471942,
                    -0.06932045372424538,
                    0.02957543085969849,
                    0.016141493522681186,
                    0.08533242691026377,
                    0.06435183905863956,
                    -0.10717017363566217,
                    -0.06892422824554914,
                    -0.07413038606784715,
                    -0.0016328527190761413,
                    0.0473291478917581
                ],
                [
                    -0.141468457631242,
                    0.18413854219914727,
                    -0.0939253112336043,
                    -0.1566668118572393,
                    -0.013516839991787459,
                    0.057209370959449724,
                    0.038849355664066304,
                    0.2914476418301738,
                    0.06904823805722042,
                    0.07966924651042412,
                    0.09623418209240944,
                    -0.14884417800113356,
                    -0.05858122205032793,
                    0.04833622534642858,
                    0.026107038172861648,
                    0.07924308531203128,
                    -0.11390189653247139,
                    0.16356215878774363,
                    0.018255758178485616,
                    -0.11011517676930493,
                    -0.08105331888793342,
                    -0.002225721592722938,
                    -0.044277757789675076,
                    -0.0764734895195707,
                    0.03834915276039585,
                    0.11925133079636606,
                    -0.02301026763402133,
                    -0.06948535244017168
                ],
                [
                    -0.252718160221715,
                    0.11872815241797444,
                    0.04772331787923348,
                    -0.03644522974949831,
                    0.12305233284077946,
                    -0.12034665589351001,
                    0.007465134079363335,
                    0.10465990325972462,
                    -0.012691325958305275,
                    0.03885722391902101,
                    0.09492041717413163,
                    0.12024795137171794,
                    0.10195015216610066,
                    -0.12936027097104405,
                    -0.005510761169014132,
                    0.08340153179479642,
                    -0.084648407386471,
                    -0.07428998421012759,
                    -0.003690963178581282,
                    0.04815003501843418,
                    -0.05952948204449332,
                    0.07824228589609021,
                    0.06096347011507424,
                    -0.013458185599776337,
                    -0.016300440659280355,
                    0.08205871665856201,
                    0.02805145284554421,
                    0.08950238737424428
                ],
                [
                    -0.0001676913228121146,
                    -0.09810685892583028,
                    -0.010334294156901933,
                    -0.06949572309137798,
                    0.10084451634498687,
                    0.030539270853783995,
                    -0.12968092885951538,
                    0.0985365774434732,
                    -0.17367353076526904,
                    -0.056220260162193184,
                    0.07271427047667876,
                    0.07970185371152694,
                    -0.12736865160572736,
                    -0.021389189716225276,
                    -0.002435055766997863,
                    0.16967957342029152,
                    -0.0914841570518104,
                    -0.1734459210808401,
                    0.061581761821352714,
                    -0.1255892930728558,
                    0.16461638547039031,
                    0.10859883192946967,
                    -0.17721964520327987,
                    -0.08197198885209181,
                    0.06294615305522415,
                    -0.07454541307873458,
                    0.10422673402568304,
                    -0.13308133554764226
                ],
                [
                    -0.14341468564078527,
                    -0.21703987375867806,
                    0.12321718451089952,
                    -0.036938943719180176,
                    -0.2960750779606262,
                    0.05388486942536611,
                    0.009506399542799828,
                    -0.003047189909050287,
                    -0.06083494712213738,
                    0.03759375475775994,
                    -0.043338354434023674,
                    -0.012578283783024238,
                    -0.1040649858731389,
                    0.06616112401491127,
                    -0.1239090882306152,
                    -0.015052733562656679,
                    -0.10857302162965943,
                    -0.08357886041685822,
                    -0.0468667818930244,
                    -0.15972120051434546,
                    0.16426150010979185,
                    -0.07913348163347778,
                    -0.10260877757244911,
                    0.05121463736587403,
                    -0.04947069231062425,
                    0.011388357284011968,
                    -0.0815785578882336,
                    -0.003904699694048499
                ],
                [
                    0.042042930515108275,
                    -0.2623264289730269,
                    -0.05158218282200962,
                    -0.12485517281592518,
                    0.03548026151317329,
                    -0.016179574947381075,
                    0.2096606189695548,
                    -0.05277214860929999,
                    -0.04874073677093321,
                    -0.07099552054182882,
                    0.11726084954045146,
                    0.11570977810893185,
                    -0.03596208892369072,
                    -0.06456116910439862,
                    -0.018937453823253802,
                    -0.008329572796799248,
                    0.11562262183782326,
                    0.0676091814472704,
                    -0.042615926673235244,
                    -0.08636189654553006,
                    -0.08941340764335443,
                    -0.058645956662636944,
                    -0.125888284165334,
                    -0.03765060460871878,
                    -0.0772549404961865,
                    -0.0038627484552406556,
                    0.0716870180309175,
                    -0.14071148860686847
                ],
                [
                    -0.16529822453729626,
                    -0.04315516462579658,
                    -0.1097684721796503,
                    -0.019236673080278568,
                    -0.03000426746168071,
                    -0.02242359047191247,
                    -0.1269189540760435,
                    0.06787657409493499,
                    0.08033397417582794,
                    -0.020752435556007243,
                    0.045575700166429776,
                    0.1332794275321662,
                    0.051240053363739504,
                    -0.11965111041003118,
                    0.08661118897619656,
                    -0.08021011400872033,
                    0.18779438484198208,
                    0.052358407281121414,
                    0.15505418395286238,
                    -0.011346328842594799,
                    0.020085897532285166,
                    -0.16729675062276236,
                    -0.08388519279126098,
                    0.08196244097604487,
                    -0.03944664301671276,
                    0.018091836427878736,
                    -0.032907353149528605,
                    -0.1380602958152534
                ],
                [
                    -0.18047594661797184,
                    0.07129269376471739,
                    -0.08706602746073834,
                    -0.06285041628715966,
                    -0.0585756047352471,
                    -0.07663173584414713,
                    -0.11164565022544137,
                    0.0756377635929168,
                    5.7070755621417866e-06,
                    0.0747565957621127,
                    0.010089387713020877,
                    -0.12251956634933919,
                    -0.059810384956984666,
                    0.08102648304642814,
                    0.17800571233481155,
                    -0.03766292822334139,
                    0.05541998717434359,
                    -0.03775463435495655,
                    0.05266682595429382,
                    -0.13074596655891477,
                    -0.079833498623013,
                    0.11901887696881142,
                    -0.0026382798246032692,
                    0.029157765734875843,
                    0.025085426409722403,
                    -0.10248973555496846,
                    -0.0004497649250291165,
                    -0.204978928180004
                ],
                [
                    -0.007441011778893599,
                    -0.16394193257720252,
                    0.015378221579220256,
                    0.05015622070545744,
                    0.001216652360509988,
                    -0.1510054378224467,
                    -0.026145954670610885,
                    -0.14407554572729264,
                    -0.03236247584256416,
                    -0.0430161226454327,
                    -0.08005158541047597,
                    0.001267755016618038,
                    -0.08782127396403154,
                    -0.10937803079391811,
                    0.04260837372933088,
                    -0.07343383603362014,
                    0.028588849214827995,
                    0.07335834723259131,
                    -0.05177353278031759,
                    0.039195559570782884,
                    -0.019293601910420382,
                    0.08881438803389213,
                    0.045235260743294405,
                    -0.029820852489378352,
                    0.07135214350389783,
                    0.055045372360520255,
                    0.2594943635071603,
                    0.04213504220564066
                ],
                [
                    0.09125182140706124,
                    -0.14780217831463283,
                    0.1353738528373567,
                    -0.011425192882944472,
                    -0.06210353279111295,
                    -0.0872616997811117,
                    -0.14910441012097436,
                    -0.17898188509495583,
                    -0.02919926337011269,
                    -0.04192081141554381,
                    0.046689238032904146,
                    -0.05006438526331151,
                    0.06437453436496962,
                    -0.058653970239794045,
                    0.08770164483943316,
                    -0.24036399843435052,
                    0.14573423027991966,
                    -0.18556353427041758,
                    0.0818220353066663,
                    0.20010082340521299,
                    0.03815497103356101,
                    -0.15376457499958646,
                    0.11984545129443683,
                    0.10112306322879219,
                    -0.2169088623610491,
                    0.08251219660614724,
                    -0.051666726531407726,
                    -0.0001322819004311294
                ],
                [
                    0.004331493133474982,
                    0.05226640494490516,
                    -0.03885517087394484,
                    0.03389471636708543,
                    -0.18993805175343703,
                    -0.10850434367113167,
                    0.12925396957851562,
                    0.08670411698672359,
                    0.14626217244634732,
                    0.03729340476934089,
                    0.046757837304399,
                    -0.08722718296324637,
                    0.07878424711697546,
                    -0.08143983711495373,
                    0.07133896462474516,
                    0.03260483753519,
                    -0.022323040432627637,
                    0.01593456830560754,
                    0.03561790439265529,
                    0.17774578895974383,
                    0.051705244788106466,
                    0.06723583004846899,
                    0.18172984635597456,
                    0.02287178201611188,
                    0.15716118845084148,
                    0.08429019357487313,
                    -0.04876210747452634,
                    -0.026786362275152194
                ],
                [
                    -0.0775684279397389,
                    -0.011382024560606873,
                    -0.0959735610198325,
                    -0.006248103414489729,
                    -0.04589861958927891,
                    0.0529666805645305,
                    0.12299938709641933,
                    0.05982211011060793,
                    0.008399640842482172,
                    -0.2262297607541969,
                    -0.015905772042461165,
                    0.06557981219895757,
                    -0.3684486812543637,
                    -0.03130652430659433,
                    0.16693595913316361,
                    -0.19233854415665752,
                    0.11895143243100913,
                    0.03487266471592972,
                    -0.03325668563032625,
                    -0.08784575052126309,
                    -0.08169228595573885,
                    -0.09264179290079416,
                    0.011727797194849815,
                    0.1017746580617046,
                    -0.056749568474023085,
                    -0.08589771717634992,
                    0.05789296960833337,
                    0.037944450292842984
                ],
                [
                    0.11265939848941256,
                    -0.09746780343095017,
                    0.0274815630315121,
                    0.021443687343837534,
                    -0.16773994218040233,
                    0.005956289169527537,
                    -0.2120592297777799,
                    0.07961983143960721,
                    -0.08408880295390307,
                    0.11337684847834793,
                    0.010492603002171494,
                    -0.0705632317029408,
                    0.02539230236979563,
                    0.007255896971237361,
                    0.04167449963935404,
                    0.1536594299961779,
                    0.015559523803466058,
                    -0.06884964293513861,
                    0.027532108113827426,
                    -0.12774836468040812,
                    0.05999328716504239,
                    -0.07847699902730222,
                    0.03983761485519602,
                    0.013287092562945574,
                    0.03994204031555573,
                    -0.04256202131539316,
                    0.03199330186124588,
                    -0.04003147402000856
                ],
                [
                    0.10709095153081363,
                    0.0909293933700395,
                    0.05588421464348245,
                    0.039185646128275554,
                    0.06247614311816962,
                    -0.023383474368157086,
                    -0.17864169599386365,
                    0.0032226841028545707,
                    0.04769951381770596,
                    0.01651398329135042,
                    -0.17260169954608717,
                    0.08151035843006949,
                    0.0648954150495634,
                    0.024969605932866228,
                    0.06855581301590616,
                    0.13953075259654749,
                    0.10794946424672978,
                    -0.13451609523486527,
                    0.08853380393364868,
                    0.004786631021152017,
                    -0.0036673043233807407,
                    -0.03608464730035904,
                    0.30679366980874273,
                    0.008159073633304637,
                    -0.024701651701884042,
                    -0.08711764329573601,
                    0.09851688574454953,
                    -0.22190868037711997
                ],
                [
                    -0.0969004816044394,
                    -0.18444692428373036,
                    0.10984013431695079,
                    0.08009681015947517,
                    -0.07642499395619975,
                    -0.13144538151587806,
                    0.08260522608095995,
                    0.13074480617721151,
                    0.06002937143442982,
                    0.025955037135014927,
                    0.165553147376447,
                    -0.024242003487609954,
                    0.1650026455293877,
                    -0.18285507876371054,
                    0.030069049491615093,
                    -0.013602694439561722,
                    0.04110637279590436,
                    0.14223729619534303,
                    0.01281560999392157,
                    -0.13684316591165832,
                    -0.0334700345559332,
                    -0.07081965405680385,
                    0.15215280369890039,
                    0.06075937309856301,
                    -0.16623792710382715,
                    -0.1129108609969233,
                    -0.048699450207188376,
                    -0.14676041982020097
                ],
                [
                    -0.1307826623233387,
                    -0.09347498848388229,
                    0.036108428078932664,
                    0.045675211071305045,
                    0.06468804396966955,
                    -0.2493367734736343,
                    0.10396508117997649,
                    0.036934296097099764,
                    -0.07603520454659858,
                    -0.0577150101862281,
                    0.023296996596763524,
                    0.052597178664999404,
                    0.06211411367854175,
                    -0.037047250931015664,
                    -0.0747133031011331,
                    0.11236168961145412,
                    -0.07838792455220017,
                    0.026412724189980658,
                    0.05831712966874594,
                    0.08813601325080042,
                    0.11038752619221444,
                    -0.1544204462914762,
                    -0.042232098644723305,
                    -0.004100117039498081,
                    -0.033746131487931,
                    -0.05454496591023258,
                    -0.046568590422235975,
                    0.12468543296672564
                ],
                [
                    -0.00341860778608998,
                    0.18470686769981814,
                    0.06000550637377912,
                    0.24878559961338353,
                    0.006512319085578271,
                    -0.18241111042489985,
                    0.018906075857809127,
                    0.08751969068371246,
                    0.007607731581920675,
                    -0.03272938923495726,
                    0.01234203236119341,
                    0.11432979510530922,
                    -0.09091410940873068,
                    -0.06324070707546281,
                    -0.08674191775541983,
                    0.029681444507077964,
                    0.050262640154971575,
                    0.1357467471044066,
                    0.017801695998850193,
                    0.15197155590104597,
                    0.04582687046286542,
                    -0.07711022565912723,
                    -0.07098076819779145,
                    -0.17275586935166684,
                    -0.0037448002450702835,
                    -0.06780488057395083,
                    0.19820112047311286,
                    0.05307908011576148
                ],
                [
                    -0.07865607524028975,
                    0.25347932617009666,
                    -0.03588800249261308,
                    0.08232856591013425,
                    0.060867175934054274,
                    -0.15908138933188762,
                    0.14521186257953164,
                    -0.14765411537634596,
                    -0.05048788127690867,
                    -0.0932037443811433,
                    -0.0640285469672353,
                    0.02344464704341282,
                    -0.0029668646155370155,
                    -0.1511285044420318,
                    0.054709443635816875,
                    -0.0470397440988131,
                    -0.02751319917262367,
                    -0.060330327345916375,
                    0.06968951678271294,
                    -0.07195121225994451,
                    0.04263898988731398,
                    0.010406777451166629,
                    0.04046980312927116,
                    0.06975507832616464,
                    -0.04305238621050433,
                    0.0016355299089075817,
                    0.017337255371551036,
                    -0.05615754136804506
                ],
                [
                    0.005726530267521996,
                    -0.11351101918653284,
                    0.03067991854719555,
                    -0.1130454873873834,
                    -0.1174131108722967,
                    -0.07376732195857405,
                    -0.09966002063843024,
                    -0.031165557464439116,
                    -0.005683492120323467,
                    0.3115552742230776,
                    -0.07564948527265888,
                    0.029458180993267958,
                    0.04467512432323241,
                    0.08507419205508704,
                    0.09708205058827259,
                    0.04719682467691373,
                    -0.0248186486993844,
                    0.045199152745670955,
                    -0.03948966466633979,
                    0.018434749479033435,
                    -0.12403157214009616,
                    -0.04252143738840682,
                    -0.1240940314350274,
                    -0.35836346233390554,
                    -0.0873841334520036,
                    0.18307114233561045,
                    -0.059850705935798464,
                    -0.04049614135509101
                ],
                [
                    -0.10625917564648066,
                    0.21988322194626833,
                    0.028251879132050746,
                    0.06830057493783663,
                    0.008607872801586898,
                    -0.08556645336793732,
                    0.0641017518838778,
                    -0.1512428173555567,
                    -0.0009935010209642435,
                    0.12163807534844313,
                    0.042757496192571166,
                    -0.02025346573838918,
                    0.03188217349951825,
                    -0.2214022498641731,
                    0.094698756291328,
                    0.11619504149486676,
                    -0.016838006157422026,
                    -0.0709729224543116,
                    0.0862759259215156,
                    -0.25520141018871123,
                    0.02975799049583902,
                    -0.08707431311235962,
                    -0.056019195386030576,
                    0.03151110367177139,
                    -0.06978892111256925,
                    -0.05705739623443906,
                    -0.12023504182918479,
                    0.10408587629038624
                ],
                [
                    -0.06765600198528149,
                    0.016648359170071226,
                    0.03926984855237251,
                    0.13052607057330642,
                    0.08989082292831369,
                    -0.035082792840050205,
                    -0.05788934773017737,
                    0.041673342568656166,
                    0.06024239302218073,
                    -0.053965243235831795,
                    -0.12838112444649327,
                    0.13069308136042407,
                    -0.05829317552102609,
                    0.16164402405155073,
                    0.050375352185344315,
                    -0.08592889533369362,
                    -0.09053594470558357,
                    -0.14394862196195377,
                    0.06808220815369875,
                    -0.2650887397981872,
                    -0.03662656722236262,
                    0.2328671721348885,
                    -0.04129124674655609,
                    -0.04180304556882477,
                    -0.02042996826639694,
                    -0.09416724072185609,
                    0.09841112232537932,
                    0.004184960422330533
                ],
                [
                    -0.03439554117260779,
                    -0.08255861442542184,
                    0.032814132778680075,
                    -0.12010874779309914,
                    0.10517809048527706,
                    0.029021651525615713,
                    0.19947616495592413,
                    -0.08695529974997937,
                    -0.11854821026301969,
                    0.008366927723639384,
                    -0.06792884474413141,
                    0.03706783187512069,
                    -0.059328587685244356,
                    0.028318930378120524,
                    -0.016935417121939116,
                    0.04896379701915885,
                    -0.013961728379355573,
                    -0.006253368904267236,
                    0.1303097731071954,
                    0.008523574407755988,
                    0.02217717089020789,
                    0.19854367115810195,
                    0.05669677300636117,
                    -0.12270077384492535,
                    0.05381062731191327,
                    0.007157995063350021,
                    0.022975800166954517,
                    0.012929893184626588
                ],
                [
                    0.05924220418380449,
                    -0.06225734486504369,
                    -0.1356769506672351,
                    -0.23811166636644396,
                    -0.10491068409683138,
                    -0.113093158989766,
                    0.05191286295833284,
                    0.006468673359197348,
                    -0.0022490201356339524,
                    0.05035495710493956,
                    -0.1146362666056528,
                    0.18629337867880025,
                    -0.12481274774763436,
                    -0.044874490969488846,
                    -0.1456746773239486,
                    0.0993778419054037,
                    -0.08047978729113989,
                    0.034088875822537695,
                    -0.0402439011843663,
                    -0.07575543111652719,
                    -0.002247132810892671,
                    -0.1636800437834179,
                    -0.13974559832049727,
                    0.24360447713726094,
                    -0.09366260387621683,
                    -0.023142490262201068,
                    -0.122422456961485,
                    0.05865307760276387
                ],
                [
                    0.049448993192994506,
                    -0.04356068287667599,
                    -0.05878297609271388,
                    -0.14801867258722787,
                    -0.20281425313435975,
                    0.07536937152219567,
                    0.09039947336463379,
                    -0.04664612753602393,
                    0.04181705495386567,
                    0.1559121701221954,
                    -0.008694905857717084,
                    0.06898918516089139,
                    -0.11504032326483185,
                    -0.15531362969346008,
                    -0.0885741416780636,
                    -0.08157466766290296,
                    0.032411082632075754,
                    0.10814832465046476,
                    0.17117391764339063,
                    -0.05964681413858283,
                    -0.029280105641715418,
                    -0.009069796641221478,
                    -0.02752371972388784,
                    0.0940369266557091,
                    -0.024867343791752827,
                    0.07130440619572766,
                    -0.11870923621469634,
                    -0.21153347409932485
                ],
                [
                    0.06198575232197451,
                    0.052601457407049704,
                    0.035210693330145995,
                    -0.09669650537205887,
                    0.09674914748102084,
                    0.05790436396067009,
                    -0.046533572272951094,
                    -0.030170678730872477,
                    0.026356517054376506,
                    0.12743925132433126,
                    -0.09984295809445189,
                    -0.1516581696372359,
                    -0.11594037717909883,
                    0.048502249161143145,
                    -0.08782768471202129,
                    0.07719786208974662,
                    -0.05053433432612458,
                    0.02471665818364948,
                    0.07187687372343604,
                    -0.00942772351392386,
                    0.1780234068778227,
                    0.036419701474212134,
                    -0.09039929000164748,
                    0.00484318993520536,
                    -0.20494119710200565,
                    0.06755469819251628,
                    0.01911721188215296,
                    -0.047832083722516204
                ],
                [
                    -0.0659319137608452,
                    -0.06252069745143239,
                    0.009337990180314342,
                    -0.018456973493938107,
                    0.17188040117627362,
                    0.028415752610871432,
                    -0.02080622516957564,
                    -0.05808341544279423,
                    0.05107362912745919,
                    -0.24276556224729964,
                    -0.0013052145456814923,
                    0.051685095379206215,
                    0.10691878992670256,
                    -0.01404136085650948,
                    0.01496906916594085,
                    -0.04395964370665041,
                    -0.03938546784036167,
                    -0.04389613180788149,
                    0.10603976911912716,
                    0.18463799779071893,
                    0.012134330705982221,
                    0.04197651818152983,
                    -0.04409569659194862,
                    0.03623867612673909,
                    0.014359433491377312,
                    0.12665528413015542,
                    0.015572494334276153,
                    0.06257988228900958
                ],
                [
                    -0.08333270029190648,
                    0.07326146103072398,
                    0.03338468961608669,
                    -0.06536245434738781,
                    0.07621085641406783,
                    -0.16173442772991126,
                    -0.1572722152920153,
                    0.04067148325492586,
                    0.0004293741565436957,
                    -0.08495855691544524,
                    0.11803146872864573,
                    0.011658050213395775,
                    -0.016408844661571876,
                    -0.1389929914012205,
                    0.1549314495630733,
                    -0.030716094549865704,
                    0.09664395034477585,
                    0.0374505976806272,
                    0.005359710675294276,
                    -0.001644739912593667,
                    -0.0030106605261270114,
                    0.08244396180079117,
                    -0.13391914809799693,
                    0.11694051551064125,
                    0.048602394279044746,
                    -0.03580421839507946,
                    -0.056020945945779776,
                    0.020230181427653916
                ],
                [
                    -0.08619184913361289,
                    -0.03161731841059084,
                    0.13283893317555776,
                    -0.0004682925334682226,
                    0.02293703823485703,
                    -0.020466470134154258,
                    -0.19222223467129307,
                    -0.015450011022443777,
                    -0.03337692229720002,
                    0.017666046293276685,
                    0.02716334048554858,
                    0.01216554856791847,
                    0.03409037146942509,
                    -0.04538914525211757,
                    -0.09707378929124584,
                    0.07480890473835314,
                    -0.04278144250990432,
                    -0.10550848873081019,
                    -0.02127031705131529,
                    0.09538461742373024,
                    0.034284745025837164,
                    -0.05533100564416669,
                    -0.01650647692376395,
                    -0.18034148309566234,
                    -0.07936878120461782,
                    -0.10224332710450489,
                    -0.0011550546055528364,
                    0.012872596896533263
                ],
                [
                    -0.10668352847552408,
                    -0.12877000192339552,
                    -0.030332132987415862,
                    0.1349286123280506,
                    -0.16680784418641126,
                    -0.003551450291745431,
                    -0.030295089871588573,
                    -0.0614282998779071,
                    -0.10217257017947401,
                    -0.021363754119294875,
                    0.06964560475590319,
                    0.02109082777712535,
                    0.09821031195700358,
                    -0.09961194427187058,
                    -0.020265048989805766,
                    0.10555670342826383,
                    0.029398709454378936,
                    -0.08643493398258191,
                    -0.012700044377627477,
                    -0.16488404005645274,
                    -0.07847043137660294,
                    -0.06350351566936555,
                    -0.07244387864580788,
                    0.054806921814816216,
                    -0.2659241419734621,
                    -0.04846509771101927,
                    0.1250339255824446,
                    0.02064472493788267
                ],
                [
                    -0.03089545261891502,
                    -0.013274954404352694,
                    -0.007783091182557326,
                    -0.021471473700939058,
                    -0.033020162512691624,
                    -0.0838571233218866,
                    -0.0785414242335248,
                    0.053760523975007295,
                    -0.01497977464665504,
                    0.061642392491075365,
                    0.012858563145389447,
                    -0.12981024453065254,
                    0.018777163697326446,
                    -0.0627250860476569,
                    -0.1426116079865808,
                    0.15433084452758383,
                    -0.09693685767922539,
                    -0.05988363450215073,
                    -0.03665674590044003,
                    -0.08777223044609567,
                    -0.17502526510445993,
                    -0.05215467555129555,
                    -0.09110235371858459,
                    -0.02115438814795377,
                    0.0093037402787478,
                    -0.09490829598540859,
                    0.08701800257863135,
                    -0.04726864009938744
                ],
                [
                    0.060637605564920295,
                    -0.0023938138261640324,
                    -0.07155674162472395,
                    -0.2174568600660427,
                    0.06844778702297598,
                    -0.006587172049790541,
                    0.01809651371231385,
                    -0.07069717625306673,
                    -0.003522933678354383,
                    0.1266633918283809,
                    0.03637371949989937,
                    0.23015070348624933,
                    0.031456890106751574,
                    -0.08725370712582424,
                    0.1780136666923991,
                    0.17209975438037517,
                    0.09904544121241704,
                    -0.08208989205974578,
                    -0.10929519730117643,
                    -0.01915302122386875,
                    0.04422459637353222,
                    0.07521272608835829,
                    -0.0542521045724388,
                    0.06217340412215266,
                    0.0714523945072405,
                    0.08568296591952576,
                    -0.15202436697746108,
                    0.040638020829144396
                ],
                [
                    -0.1278832523971035,
                    -0.07652549075541051,
                    0.007345764960739062,
                    -0.022218158908184137,
                    -0.1345288333253265,
                    -0.09384515671596888,
                    0.06135345284265468,
                    0.13431597494233383,
                    0.012073467579912832,
                    -0.02480465057843488,
                    0.1328902030736822,
                    0.17420479863092014,
                    -0.0869594987467125,
                    -0.08939984163000309,
                    0.08045327631354643,
                    -0.018057835582472134,
                    -0.03130094303346307,
                    0.049546240203595764,
                    0.006951112557578703,
                    0.20909722942030098,
                    0.030720673478953454,
                    -0.008050661702766543,
                    -0.020674821931687883,
                    -0.12767640555424606,
                    -0.04376358062460873,
                    0.033954176989639005,
                    0.0675353999242267,
                    -0.18450101241377412
                ],
                [
                    0.17966738783198474,
                    -0.014160104967219842,
                    -0.037955972057150934,
                    0.04658030313560917,
                    -0.01492211981517659,
                    0.07584560204113944,
                    -0.001951792571535714,
                    -0.09029734779093708,
                    0.00199355622354274,
                    0.1857428380289117,
                    -0.15814716578374918,
                    0.016265697064338374,
                    -0.11514781668210604,
                    0.09441286319236783,
                    0.13060475451358805,
                    -0.0626438051124264,
                    -0.09841657423327671,
                    0.13694307600314803,
                    0.026425972415133545,
                    0.03637925535209582,
                    0.16145990962348558,
                    0.04065938547499446,
                    0.04058025271863678,
                    -0.08505999181780395,
                    -0.061697977090098416,
                    -0.027242151390824004,
                    -0.07471027838248868,
                    0.0554600612281324
                ],
                [
                    -0.036266270768043764,
                    0.09453990910390898,
                    -0.05149721081232859,
                    0.004657788990772727,
                    0.020214102376068948,
                    -0.0258089663959096,
                    0.10172959776678046,
                    -0.052776443537458195,
                    0.14830454126419906,
                    -0.08809875591998534,
                    -0.008240176003890367,
                    -0.010475391835745999,
                    -0.13705103513619793,
                    -0.04745079006980901,
                    -0.024719633076526963,
                    0.04502110067326784,
                    0.20937444563920837,
                    -0.08783388866339858,
                    -0.06942428350176226,
                    0.17022711312724478,
                    -0.06969923008444912,
                    -0.004877865039242146,
                    0.09081701467506073,
                    -0.03702687315502534,
                    -0.10118711971121147,
                    -0.1531275849054137,
                    0.1200307922357742,
                    -0.08591178188692278
                ],
                [
                    0.15832263622749176,
                    0.06493078227194127,
                    -0.012812858568330449,
                    -0.13142249603789652,
                    -0.060622376091084965,
                    -0.06731527047354016,
                    -0.08681271416385465,
                    -0.009372735736697828,
                    0.19023288847096367,
                    0.15538257981034334,
                    -0.1117313775986793,
                    0.009759745000418893,
                    -0.04490952532318699,
                    -0.08349069709199743,
                    0.11867228620114906,
                    0.02102745263233322,
                    0.21470172632967255,
                    -0.02670974202910269,
                    -0.051958246400334133,
                    -0.08632989192999582,
                    -0.001614379551244374,
                    -0.0314345426280094,
                    -0.14229001308119169,
                    0.05176602478043712,
                    0.11249495202627319,
                    0.046232408525880626,
                    -0.03093726555732515,
                    -0.11351162911978073
                ],
                [
                    -0.0435232194898786,
                    0.11681326041132378,
                    -0.032605877585465626,
                    0.22055575847744752,
                    -0.08905140163962122,
                    -0.014049340954774715,
                    0.16825659606946133,
                    -0.01964765777192597,
                    0.01726410819929989,
                    -0.04502504295085006,
                    0.06624849807145483,
                    0.05885096290514175,
                    0.1150926440250138,
                    0.026796000060321852,
                    -0.08930578294672302,
                    -0.1734712630740854,
                    -0.17124101810812462,
                    -0.036784610801729144,
                    0.0650034486343479,
                    -0.1608087881713585,
                    -0.05663946921092083,
                    -0.08188392673256653,
                    0.19802305006732035,
                    -0.03203088345672263,
                    0.08053504474103433,
                    0.023822926503435357,
                    -0.12197010171790029,
                    -0.017401224314128785
                ],
                [
                    0.1603651175157076,
                    -0.02302046199442557,
                    -0.11296421679614854,
                    0.11114802591908167,
                    -0.01700424550405585,
                    -0.149777179701466,
                    -0.05581329618785394,
                    0.1079459476329979,
                    -0.08843183484658555,
                    -0.04515452842268818,
                    -0.10628021825228731,
                    0.1449737868534583,
                    0.10940942925529945,
                    -0.03898473965515193,
                    -0.09626680480976509,
                    0.014107251480305043,
                    -0.09787732226906361,
                    -0.16594441708813878,
                    0.0021848469485808114,
                    -0.09859236322506451,
                    0.0031974748203500453,
                    -0.02002360036999933,
                    -0.18139874766218225,
                    0.0894565905818571,
                    -0.06998569418385081,
                    0.0005652828695266281,
                    -0.01932796355276314,
                    0.01709108567184732
                ],
                [
                    -0.024550760903194583,
                    -0.08806625307638649,
                    0.06251489353962239,
                    -0.04870823107700725,
                    0.05847207112972638,
                    -0.03354311734523015,
                    -0.17911670927614703,
                    -0.034898642796909865,
                    -0.034997361307683036,
                    0.0566438776519436,
                    0.04772409566230219,
                    0.07941499329579454,
                    0.09987263918007624,
                    -0.011142971008558128,
                    0.03864024074765905,
                    -0.22807665123748225,
                    0.110148072556507,
                    0.061684650884641236,
                    0.01775982732788199,
                    -0.07990593516717977,
                    0.05335437722134739,
                    0.06580669485111412,
                    0.013025032857402592,
                    0.08745956271796326,
                    -0.10717161527442609,
                    -0.06838231755769036,
                    0.045463692963575136,
                    -0.01185636313045918
                ],
                [
                    0.10566100526552355,
                    0.027571313555722954,
                    -0.08891018320511926,
                    0.020870905547149245,
                    -0.2426567664531587,
                    0.014664849566643162,
                    -0.05417511462077392,
                    -0.06590215372638551,
                    -0.29688307844776785,
                    0.020303336449276423,
                    0.16503105126763795,
                    0.061594279390093,
                    0.15380384295808033,
                    0.05949283437679108,
                    -0.04962501681080285,
                    -0.05112961757923525,
                    -0.09699369622851708,
                    -0.023663911462768375,
                    -0.10157728735859983,
                    0.015812755145690874,
                    -0.08769306500755054,
                    -0.13509939651088576,
                    -0.08383573133526374,
                    -0.00919200165392163,
                    -0.18826551080163537,
                    0.044061840971504077,
                    0.007175064993578002,
                    0.05872442116811775
                ],
                [
                    -0.06614930150444363,
                    -0.04583875855227226,
                    -0.14394754780073363,
                    0.04101103154856056,
                    0.24356574404108725,
                    -0.11027800239027745,
                    -0.15305698694102648,
                    -0.06720857098574465,
                    0.09607179859571684,
                    0.30480308532435235,
                    0.06877392051678549,
                    0.1435482379148517,
                    -0.047288919455138086,
                    -0.05938306350284318,
                    0.05568288848183371,
                    0.14135050758093684,
                    -0.08236806945811473,
                    -0.0774566028872262,
                    -0.015216020048876844,
                    0.10288794932847761,
                    0.006484984948845428,
                    -0.024383634645359302,
                    -0.0421704130068452,
                    0.007477694585511479,
                    -0.09228946970520073,
                    -0.20881882822590253,
                    -0.052424692312088426,
                    0.09494779905872529
                ],
                [
                    0.04744741967695192,
                    0.07639676024362806,
                    -0.20103995885908874,
                    -0.09917225166891755,
                    -0.052514740802747754,
                    -0.09283107997448854,
                    0.004869403313169945,
                    -0.0566448390063252,
                    -0.21162057494006112,
                    0.09568363236279796,
                    0.05182561986113201,
                    0.3188157719042653,
                    0.3016823722688626,
                    -0.07136150532024194,
                    0.14169191019849908,
                    0.06602363024569893,
                    -0.16916165192239538,
                    0.09120874915988691,
                    -0.11712255922839195,
                    0.05380094234863655,
                    0.03984865816618221,
                    0.06148769841588666,
                    0.03987833928929775,
                    -0.008865830091046568,
                    -0.037892278716181046,
                    0.038480997871678635,
                    0.06407329941725123,
                    -0.08790959796821544
                ],
                [
                    -0.18364240953663788,
                    -0.09118936826787281,
                    0.03434237155584163,
                    -0.0006421595383716689,
                    -0.04157936063110824,
                    0.006014207301943398,
                    0.027147653594549605,
                    -0.13060665995851978,
                    0.1482823649318434,
                    -0.028215438736846274,
                    -0.051634242338231086,
                    0.04644423278174477,
                    -0.09203920011011953,
                    -0.016530534833116516,
                    -0.12625339490585252,
                    0.08328882513214325,
                    0.0671798776183454,
                    0.029242765232600124,
                    -0.029234486669257206,
                    0.21339607847812966,
                    0.1268692843949832,
                    -0.056360127396993365,
                    0.09670188166846917,
                    0.0640805087770686,
                    -0.07723649853757784,
                    0.0906920180854645,
                    0.09175718502303704,
                    -0.022829495740952332
                ],
                [
                    0.09366735636806679,
                    0.2081599329542998,
                    -0.01658260580679821,
                    -0.025956199550981884,
                    -0.046113789192765264,
                    -0.08320948251114026,
                    0.10680864317484415,
                    -0.0745691896950217,
                    0.05080850062539944,
                    -0.1010769687322534,
                    -0.18372705351765092,
                    0.045016211422689946,
                    -0.019097727438975837,
                    -0.08204675198120596,
                    -0.1334299434056201,
                    0.05883558486124583,
                    -0.06923626879847354,
                    -0.055294275206288726,
                    0.1305855129171712,
                    -0.08713895472420116,
                    0.05035798450364215,
                    0.13129404874629788,
                    -0.004546287456692643,
                    0.020049755816722137,
                    0.10702214380844974,
                    0.23495605709785175,
                    -0.08987289543832228,
                    0.1633118791346272
                ],
                [
                    -0.06266767022628504,
                    -0.04962218337079807,
                    -0.09338219310502671,
                    -0.018878032527534717,
                    0.08590963337905931,
                    -0.15116981866699872,
                    0.04134249279848734,
                    -0.19446313579968835,
                    0.22575008023368498,
                    0.11185875217296706,
                    0.018934145727890116,
                    0.10026780778464055,
                    -0.08392750463501707,
                    -0.07757598009827588,
                    -0.12616959277451553,
                    0.07183601440048108,
                    0.036375560390303256,
                    0.05421017446197543,
                    -0.11278559229582746,
                    -0.070982834084643,
                    -0.11189966659311436,
                    -0.03097900203018099,
                    -0.1419086275901801,
                    0.04046450448912425,
                    -0.11504170882562988,
                    -0.05224748636262795,
                    -0.0876769253444395,
                    0.04299827925571193
                ],
                [
                    0.021989304655764607,
                    -0.09203306748469518,
                    0.19467236018477893,
                    -0.1618634876085842,
                    0.19344234060155327,
                    0.02802073744721842,
                    0.0880855921663944,
                    0.05071847625234171,
                    0.17107135205194368,
                    0.01411606363305307,
                    0.016909266806872228,
                    -0.013345622887762285,
                    -0.11463357251841748,
                    0.04192844031712643,
                    -0.1912972096369318,
                    -0.02019686118337726,
                    0.037565507077157424,
                    0.04705476723486917,
                    0.004120269032398722,
                    0.06850513177577008,
                    0.09176882234432096,
                    -0.04897747823666827,
                    -0.11294920147711747,
                    -0.10960936953074236,
                    0.19351668330824573,
                    -0.01970006162447884,
                    0.35048337285417863,
                    0.03532268093211004
                ],
                [
                    -0.06570049821604794,
                    -0.11936326113483332,
                    0.0772440172333144,
                    -0.01434003633158763,
                    -0.09157615524641656,
                    0.031110939529497762,
                    0.004154013092575311,
                    0.09969154482151697,
                    0.04759659695208057,
                    -0.29552603999485905,
                    0.034083508713968355,
                    -0.02466338461103447,
                    -0.1940869795669364,
                    0.14057130881275287,
                    0.0956507197902061,
                    0.08619398091761604,
                    -0.013234784472229122,
                    -0.0864474771656748,
                    -0.1543479774681179,
                    0.02709711255174907,
                    0.12682573994370885,
                    -0.29212944171711597,
                    -0.11089519896525461,
                    0.07984837086591917,
                    -0.03038740152630021,
                    -0.002648296486355557,
                    -0.04157130148227598,
                    0.10982937293025997
                ],
                [
                    -0.17297298579827428,
                    -0.19256171093496421,
                    0.10268353358920096,
                    -0.017149352059857438,
                    -0.20287072788939284,
                    0.03017476569004085,
                    -0.10768466931369836,
                    0.05293281065755972,
                    -0.08596480797447792,
                    0.13443517757130016,
                    -0.11083543458370786,
                    -0.05060527413309042,
                    -0.18218749051745653,
                    0.1466785837267453,
                    0.001145490617307749,
                    0.029815466146682148,
                    0.02668219784550781,
                    0.17333371206200204,
                    -0.08878643850564871,
                    -0.06912765510536537,
                    0.14561171740649723,
                    -0.33960014476336037,
                    -0.05090665559145583,
                    0.1290715306661721,
                    0.04385364944488478,
                    -0.13261054734308828,
                    -0.07478893241728157,
                    -0.2107690072504849
                ],
                [
                    -0.08872334231019462,
                    0.04242164613581199,
                    0.22032408530211142,
                    -0.07086833446904973,
                    -0.22417879831224644,
                    0.032583033871378314,
                    0.21016547640048683,
                    0.13860963312739996,
                    0.02025038602217532,
                    -0.18359498207283356,
                    -0.023139533733184364,
                    -0.252004710378925,
                    -0.03048954839830751,
                    -0.009306844173992983,
                    -0.19499957410711632,
                    -0.15142822086631746,
                    0.2355210412183156,
                    0.15311699069025655,
                    -0.053006904707577386,
                    0.17345316985935347,
                    0.049450753474342864,
                    0.04030670035643548,
                    0.015734746007469273,
                    0.12303227331913054,
                    0.18655782255034709,
                    -0.09967799328102568,
                    -0.1017554896546456,
                    -0.09749590879797933
                ],
                [
                    -0.05198219130241093,
                    -0.03943633574695649,
                    -0.005413577700333001,
                    0.06979222505991123,
                    -0.07705628567382228,
                    0.03979682847021651,
                    0.0346512076252337,
                    0.051336616718695556,
                    -0.013458588748064026,
                    -0.17955739412649813,
                    0.024637110827710803,
                    0.032185473207479096,
                    -0.27532683284692017,
                    0.01901267149857089,
                    0.06532746351109216,
                    0.1955386760463128,
                    0.008697470184132364,
                    -0.0749556297468645,
                    0.1550604775350665,
                    0.12947870360118305,
                    0.09363990571626017,
                    0.031768673407862776,
                    -0.04150477908367459,
                    -0.05755122019563004,
                    0.18224089239628036,
                    -0.1621860142402885,
                    0.04970038512344736,
                    -0.19089939476870255
                ],
                [
                    -0.028146466067021453,
                    -0.04657925340239221,
                    0.053404435854479675,
                    -0.06183607921856188,
                    0.16966375929131525,
                    -0.1039912430712763,
                    0.12016255820827632,
                    -0.055702996486762274,
                    0.05009422953149995,
                    -0.0017204846813117702,
                    0.07449116519575656,
                    -0.11877222784414959,
                    -0.06008378982147162,
                    0.17277405211075053,
                    -0.19526047151995538,
                    0.15697935198578353,
                    -0.13031776622478133,
                    0.012749184759022179,
                    -0.07399967481729562,
                    0.0998814382881829,
                    0.005165455355649465,
                    -0.1233622130579611,
                    0.04078711657332088,
                    0.014455371490594513,
                    0.009501019890781654,
                    0.07201379552336103,
                    -0.18576425638956598,
                    -0.138444496024112
                ],
                [
                    0.04090198427923223,
                    -0.033993827071071,
                    -0.05903270666498172,
                    -0.055242319971258266,
                    0.06256908568923553,
                    0.08959231473500738,
                    0.04176839845460102,
                    0.133062048933811,
                    0.017591828256287856,
                    -0.07367628241950974,
                    0.059398430004749064,
                    0.007791212480673077,
                    -0.04124018542278952,
                    0.019334586015259034,
                    0.0332865787204427,
                    -0.1529204336169379,
                    0.04522853658991998,
                    -0.03316158581449848,
                    0.017399305291849222,
                    -0.04015066389764743,
                    0.00117233989172732,
                    -0.22230236307307638,
                    0.009537261463694505,
                    -0.06439171461610278,
                    -0.025276651223079722,
                    0.12082264566197556,
                    -0.13169760826179794,
                    0.04924314630757801
                ],
                [
                    -0.030411456753214085,
                    -0.01922846736599017,
                    -0.024345602071084785,
                    -0.039868941563751856,
                    0.2376695882068236,
                    -0.08649019235205387,
                    -0.0767718870758493,
                    -0.0685213229507084,
                    -0.19298076228776614,
                    -0.12233312066490375,
                    0.05990852491444676,
                    -0.05781785397449821,
                    0.014876791816847734,
                    0.0032179030780994334,
                    -0.07803970229852822,
                    -0.05472517340560407,
                    -0.022026480205109826,
                    0.14248933138888664,
                    -0.07310889248927174,
                    -0.1373552617935178,
                    0.08048665853418048,
                    -0.04468816163635735,
                    0.09164442376999336,
                    0.1645799996463251,
                    -0.041823884578119266,
                    0.11536613081415,
                    0.051896735063514034,
                    0.025560947474791925
                ],
                [
                    0.17149474807437476,
                    -0.06669370070833505,
                    0.07601033498809469,
                    0.15197923641239452,
                    0.03347985955298069,
                    -0.12303383124773358,
                    0.2051056227497027,
                    -0.1339066319667935,
                    -0.10765712007405054,
                    -0.03819624471077565,
                    -0.00876415930327052,
                    -0.017036595524884852,
                    -0.048592924251675,
                    -0.017929249275590062,
                    -0.01317064832879548,
                    0.12248556317082596,
                    0.031051268356483926,
                    -0.08496137963682657,
                    -0.12860894313361396,
                    -0.06671030090414054,
                    0.10682038106440021,
                    -0.00325006377532415,
                    -0.0438605749281747,
                    0.1931560426871913,
                    -0.09850150609405155,
                    -0.00807438519452015,
                    -0.03798026261090649,
                    -0.04863469353723971
                ],
                [
                    0.036790635691812505,
                    -0.17682842524389697,
                    0.10595591530870196,
                    -0.06332804870773268,
                    -0.06484395275258513,
                    -0.042127925780486214,
                    0.011620906737992515,
                    0.061823332026803596,
                    -0.013683968816167258,
                    0.028741616290056966,
                    0.0483006467831614,
                    0.07699121425662767,
                    -0.03760852544054946,
                    0.063125589215393,
                    0.06111230439082002,
                    -0.17507096111971965,
                    0.018620441313254615,
                    -0.08657337576044172,
                    0.07965399976866687,
                    -0.0327056917989454,
                    -0.07396414248687172,
                    -0.033293687742537825,
                    0.0927423491839627,
                    0.17168071319955616,
                    0.08698051687848773,
                    -0.0530770019943725,
                    -0.14168901696776304,
                    -0.057452350882084446
                ],
                [
                    -0.0017722172913605225,
                    -0.1421305153784636,
                    -0.19170860703742978,
                    -0.09297065133461668,
                    -0.06968964458799283,
                    -0.07044962811645988,
                    -0.0013599085683762065,
                    0.17701025984048654,
                    -0.06956046254424945,
                    0.18988384541371908,
                    0.07121772764133391,
                    -0.029128110685676396,
                    -0.11032042925995265,
                    -0.1822110409673268,
                    0.07864941355018094,
                    -0.08228907431812857,
                    -0.0699276737807273,
                    -0.14691095911236315,
                    -0.09262179200046207,
                    -0.006342327785331015,
                    -0.113194254435032,
                    -0.0691463909035953,
                    0.03318644500028144,
                    0.03569752215571845,
                    0.09738452282586828,
                    0.06772453913527257,
                    0.06338119522168804,
                    -0.0584668592317135
                ],
                [
                    0.014348285136623298,
                    -0.020786542117111083,
                    0.0218633583650043,
                    -0.05947949622077399,
                    0.07621539615654775,
                    -0.020171265747023846,
                    0.013398523771364388,
                    0.020134027487247498,
                    -0.039701786207209405,
                    0.03240212340539094,
                    0.013001408256719258,
                    -0.08873016200772815,
                    -0.06243540241196929,
                    -0.14615602150140924,
                    0.04252276344369784,
                    0.19954912955784343,
                    -0.04828916838340869,
                    0.0030119983242050947,
                    -0.021441797091125855,
                    -0.1773642119445712,
                    0.10503191320317394,
                    0.1343926803902574,
                    0.121516671082397,
                    0.09154729618321406,
                    -0.03422739756990113,
                    0.15837332683957503,
                    -0.07055300563195009,
                    0.11359375540076695
                ],
                [
                    -0.1815834723501272,
                    0.006317120936078027,
                    -0.005706366595088941,
                    -0.10854706834578465,
                    -0.07550676216656324,
                    -0.0681446223164622,
                    0.1429058379716081,
                    -0.15441395630806393,
                    0.11153245873545332,
                    0.1202944192257053,
                    -0.03891496102981599,
                    -0.17048429875765178,
                    0.010688310167180484,
                    0.0815650489530089,
                    -0.029166159072344468,
                    -0.062080723865757796,
                    0.0227304933141248,
                    -0.005600207208672148,
                    -0.024245502019991347,
                    -0.20571565546660553,
                    -0.07036607904158498,
                    -0.02240087025222437,
                    -0.1935544684872256,
                    -0.11533516057155242,
                    -0.14337058194819605,
                    0.0798021383256109,
                    0.13165226563426194,
                    -0.23763384179830332
                ],
                [
                    -0.10580594101115066,
                    -0.18714102641070507,
                    -0.11466458785026577,
                    0.2795012678643675,
                    -0.11664511826854243,
                    0.16324376578570757,
                    -0.11399927154488139,
                    -0.11160246708317612,
                    -0.015506147818668296,
                    0.0728682136269954,
